{"classes":["A","B","C","D","E","F","G","H","I","J","K","L","M","N","O","P","Q","R","S","T","U","V","W","X","Y","Z","del","nothing","space"],"layers":[{"name":"dense","weights":[[[0.0842747688293457,0.38212481141090393,0.1362844556570053,0.12381699681282043,-0.24131068587303162,-0.3294264078140259,-0.08849365264177322,-0.0823930948972702,0.1519138664007187,-0.4493301212787628,-0.15510495007038116,0.13597242534160614,-0.2878681421279907,-0.5869947075843811,-0.8574462532997131,0.3277810215950012,-0.20782621204853058,-0.11438039690256119,0.11262865364551544,-0.814895749092102,-0.0387413427233696,-0.11312931776046753,-0.14787451922893524,0.1900038868188858,-0.10337592661380768,-0.29969772696495056,0.4644094705581665,-0.16596467792987823,-0.38728639483451843,0.0727061927318573,-0.24286307394504547,0.43451422452926636,0.11365773528814316,-0.010752814821898937,-0.6025519371032715,0.659466564655304,0.11741585284471512,-0.04162542521953583,-0.12563350796699524,0.09141190350055695,-0.4197794497013092,-0.48667484521865845,0.03845038264989853,0.46184152364730835,-0.11503548175096512,-0.13915081322193146,0.9618951678276062,-0.5761736035346985,-0.09174774587154388,-0.06025035306811333,0.026203978806734085,-0.16300290822982788,0.33167070150375366,0.3224594295024872,-0.04070103541016579,-0.8044568300247192,-0.1435951441526413,0.04749719798564911,0.604561448097229,0.3750746250152588,-0.20407222211360931,-0.39311251044273376,0.19607003033161163,0.8588542938232422,0.17172323167324066,0.13482850790023804,0.06367611140012741,0.29067307710647583,0.12289692461490631,-0.01940949819982052,-0.09370782971382141,-0.17966990172863007,0.38646140694618225,0.22047752141952515,0.018483728170394897,-0.1653081327676773,0.347724586725235,0.08701053261756897,0.4988834857940674,0.06969299912452698,0.08090251684188843,-0.02798159420490265,-0.17222502827644348,0.7921432852745056,-0.1458822786808014,0.10388684272766113,-0.010001271031796932,-0.5207719206809998,0.4546634256839752,-0.8817366361618042,0.5384455919265747,-0.3612538278102875,-0.0886673778295517,0.055506810545921326,-0.18292236328125,-0.15115106105804443,-0.7188459038734436,0.4725891351699829,-0.15438413619995117,0.07291866093873978,-0.16817449033260345,-0.4715743958950043,0.10826177895069122,-0.13901598751544952,0.469924658536911,-0.04760286211967468,0.209451362490654,-0.17543751001358032,0.5611398220062256,-0.36712029576301575,-0.1941424310207367,-0.10052450746297836,-0.0798964723944664,0.3199917674064636,-0.8142990469932556,0.0658232718706131,0.5014200806617737,-0.1450946033000946,-0.5097975134849548,0.2966254949569702,0.03278110921382904,0.01154562272131443,0.027962571009993553,0.12163343280553818,0.08150267601013184,-0.3858441114425659,0.27558228373527527,0.11363530158996582],[-0.1719578206539154,0.042661651968955994,-0.023344893008470535,0.01800478994846344,0.08042430877685547,-0.028984280303120613,0.2878878712654114,0.3067225217819214,0.14802363514900208,-0.6763563752174377,0.019812319427728653,0.10287579894065857,-0.0253452081233263,0.3291427195072174,0.1106109470129013,0.17716091871261597,-0.16873693466186523,0.35312214493751526,-0.3034000098705292,0.35040566325187683,0.04422620311379433,0.04702386260032654,-0.33703920245170593,-0.04820214584469795,-0.2231559008359909,0.008529078215360641,-0.12091954052448273,0.17375829815864563,0.28221142292022705,0.012563273310661316,-0.3264756202697754,-0.10663086175918579,0.45024293661117554,-0.16653956472873688,-0.3479897677898407,-0.16407713294029236,0.38422924280166626,-0.1039542481303215,0.07834461331367493,-0.029169587418437004,-0.13705001771450043,-0.07891514897346497,-0.11367139965295792,-0.051956694573163986,-0.24201329052448273,-0.001780653721652925,0.0073956591077148914,0.15520356595516205,-0.0489814318716526,0.11556470394134521,0.4709497392177582,0.003324102610349655,0.025047171860933304,-0.06599460542201996,0.047305185347795486,-0.16696934401988983,0.2740182876586914,-0.03804653882980347,-0.5243333578109741,-0.013118568807840347,0.11148646473884583,-0.25038713216781616,-0.19421415030956268,0.2744625508785248,-0.048443205654621124,0.17834489047527313,0.5310195684432983,0.0692339539527893,-0.4463089108467102,-0.03387376293540001,-0.06507553905248642,0.08015090227127075,0.13614898920059204,-0.2010372281074524,0.0738823413848877,0.007053539156913757,0.43482571840286255,0.020014703273773193,-0.2939087748527527,0.023773077875375748,-0.04250094294548035,-0.07656915485858917,-0.024426767602562904,-0.15294219553470612,-0.0076609523966908455,-0.1227479875087738,-0.1469600349664688,0.3110431432723999,-0.365459680557251,-0.1244339793920517,-0.6036317944526672,0.3901621699333191,0.08231522887945175,-0.06719346344470978,-0.14777499437332153,0.08394864946603775,0.17428471148014069,0.06404532492160797,-0.03795718774199486,-0.032076623290777206,0.05312040075659752,0.07794072479009628,0.6577232480049133,-0.015297356992959976,0.08562804758548737,0.23834456503391266,0.0567130371928215,0.08468473702669144,0.1938752382993698,0.04568873718380928,0.08429906517267227,-0.024589061737060547,-0.06292655318975449,-0.028158286586403847,0.03851136937737465,-0.0006649196147918701,-0.02220810577273369,-0.20533499121665955,0.49607932567596436,0.09669185429811478,-0.12846189737319946,-0.09952636063098907,0.035749226808547974,-0.19624321162700653,-0.16424359381198883,0.06287302076816559,0.047278765588998795,-0.05079418420791626],[-0.16089683771133423,-0.9987218976020813,-0.2945338189601898,-0.021225638687610626,-0.240874782204628,0.38975128531455994,0.1095096692442894,-0.61318039894104,0.1353801190853119,-0.5507952570915222,0.08691827207803726,-0.166434183716774,1.1195493936538696,-0.4188753664493561,-0.1793830245733261,0.5035543441772461,0.10524752736091614,-0.23366007208824158,-0.4869953989982605,-0.7122489213943481,0.3330551087856293,0.6198991537094116,1.143633246421814,0.36349716782569885,-0.0076018222607672215,0.040755677968263626,0.39235880970954895,0.11749851703643799,-0.21742792427539825,0.15236970782279968,0.9527645707130432,0.22887177765369415,-0.876999020576477,0.44444915652275085,0.21618616580963135,0.10322283208370209,0.36756762862205505,-0.05482816696166992,-0.030639737844467163,0.781668484210968,-0.24338200688362122,0.0991961807012558,0.45901408791542053,-0.22224067151546478,0.2693464756011963,-0.19095230102539062,0.1324530690908432,-0.13578659296035767,0.30999404191970825,-0.12731224298477173,-0.6830349564552307,0.03837011381983757,-0.25604304671287537,-0.3634488880634308,-0.1194567084312439,0.6398760080337524,-0.5779526829719543,0.12841379642486572,0.1143762469291687,0.6758388876914978,-0.183034285902977,0.05196250602602959,0.41582760214805603,-0.7254570126533508,0.870167076587677,-0.27513381838798523,-0.3436676561832428,-0.3964853882789612,1.036684274673462,-0.08374467492103577,0.1461004763841629,-0.06841988116502762,0.01742742769420147,-0.35182517766952515,-0.06295677274465561,0.06830465793609619,-1.1677981615066528,-0.014633193612098694,-0.1859101951122284,0.3936362564563751,0.013958558440208435,-0.17415040731430054,-0.11706310510635376,0.11577844619750977,-0.3602275550365448,0.16185158491134644,0.30979764461517334,-0.1167767271399498,1.094478726387024,-0.19280824065208435,1.2059320211410522,-0.976718544960022,-0.09713546186685562,0.0655684620141983,-0.15060590207576752,0.2580967843532562,0.01919415406882763,0.8993380665779114,0.09417343139648438,-0.1592375785112381,-0.06252354383468628,0.4285516142845154,-0.5342972874641418,0.004353890661150217,0.660895049571991,-0.5007959604263306,0.05320904031395912,-0.2732953429222107,-0.4103650152683258,-0.003687076037749648,-0.013912370428442955,0.36763620376586914,-0.030430302023887634,-0.27603158354759216,0.6999046802520752,0.11464902758598328,-0.3690585494041443,0.5822522044181824,0.04107760637998581,1.443393588066101,0.006214991211891174,0.018350573256611824,-0.062139976769685745,-0.36883342266082764,-0.1676207333803177,-0.1574118286371231,-0.23972086608409882,-0.07724720984697342],[0.16481566429138184,0.5708110332489014,-0.03486587852239609,0.09404218196868896,-0.4175180196762085,-0.10473651438951492,-0.07384060323238373,0.24007180333137512,0.25527435541152954,-0.3708345890045166,-0.030065422877669334,-0.1640821099281311,-0.01007863599807024,0.05108904093503952,-0.5175363421440125,0.023007553070783615,-0.04408473148941994,0.1667921543121338,0.006936804857105017,-0.541725754737854,-0.04160947725176811,0.17487826943397522,-0.13676685094833374,0.014807287603616714,-0.05716824159026146,0.20581215620040894,0.5368292331695557,0.03426598012447357,-0.04323456436395645,0.07099089026451111,0.1307428926229477,0.24147841334342957,0.3907708525657654,0.06689881533384323,-0.21073977649211884,0.4423074424266815,0.11727447807788849,-0.16470536589622498,-0.15922847390174866,0.47182756662368774,-0.5255199074745178,-0.31707242131233215,0.0011203227331861854,0.6434058547019958,0.15795844793319702,-0.17309534549713135,0.34504446387290955,-0.3798699676990509,0.342231810092926,-0.16069088876247406,0.20773693919181824,-0.09836508333683014,0.42839911580085754,0.09185949712991714,-0.009467647410929203,-0.2932426333427429,-0.1820877492427826,-0.10083800554275513,0.4285282492637634,0.11239388585090637,-0.21360564231872559,-0.3643830120563507,0.19870753586292267,0.72694993019104,0.10575840622186661,0.07887785136699677,0.009550617076456547,0.32703208923339844,-0.053249359130859375,-0.004420306999236345,-0.016371827572584152,-0.17115800082683563,0.1325412094593048,0.07567208260297775,-0.14055539667606354,0.09781062602996826,0.4157080054283142,-0.09025375545024872,0.5265618562698364,-0.05265148729085922,-0.03709259629249573,-0.0019595474004745483,-0.13859422504901886,0.7360355257987976,0.1172211766242981,-0.13226020336151123,0.14089089632034302,-0.027099385857582092,0.582139790058136,-0.5010518431663513,0.2970414161682129,-0.09603379666805267,0.05569949746131897,-0.17384205758571625,0.16090154647827148,-0.012595011852681637,-0.05572452396154404,0.394236296415329,0.09849917143583298,-0.008741732686758041,-0.011099736206233501,-0.4918387830257416,0.2972290813922882,0.03171573951840401,0.438042014837265,0.06029428914189339,0.5201789736747742,0.08965145796537399,0.6506584286689758,0.38970431685447693,-0.18257203698158264,0.08209879696369171,-0.11777056753635406,0.3950156569480896,-0.3443485200405121,-0.16188468039035797,0.6006188988685608,-0.09120723605155945,-0.18298356235027313,0.1893724501132965,0.08162030577659607,0.12926079332828522,-0.03183993324637413,0.504762589931488,-0.012523174285888672,0.030007170513272285,0.4182100296020508,-0.04588615894317627],[0.0748838484287262,-0.11103081703186035,0.14522095024585724,-0.15035076439380646,0.052451182156801224,0.12130405008792877,0.3705897331237793,0.43827155232429504,0.06325901299715042,-0.3089516758918762,-0.06109822168946266,-0.16686975955963135,0.16147135198116302,0.11083546280860901,0.14324307441711426,0.15582647919654846,0.013464096002280712,0.1296256184577942,-0.2816718816757202,0.459957480430603,-0.0760858878493309,-0.05435267835855484,-0.11810240149497986,-0.2871541976928711,-0.04283089563250542,0.04545074328780174,0.05144117772579193,-0.14552722871303558,0.2744126319885254,-0.12349060922861099,-0.04594012722373009,-0.45668554306030273,0.3705422878265381,-0.23199129104614258,-0.07340675592422485,-0.19687913358211517,0.20712676644325256,0.03972439467906952,-0.13804182410240173,0.0521080307662487,-0.0028513860888779163,0.041265569627285004,-0.05327286198735237,-0.09591477364301682,-0.27629920840263367,-0.060748424381017685,-0.37932589650154114,0.5289408564567566,0.05282940715551376,-0.07120486348867416,0.21357955038547516,-0.2192739099264145,-0.07007438689470291,-0.10945083200931549,0.0298065897077322,-0.1987425833940506,-0.1576540172100067,-0.16958023607730865,-0.5240011215209961,0.12336134910583496,-0.1107402890920639,-0.19663569331169128,-0.031234094873070717,0.0962161049246788,0.02225063554942608,0.3101317882537842,0.6320784091949463,-0.14646276831626892,-0.08016619086265564,-0.01779022254049778,0.062208808958530426,-0.08731502294540405,0.15215539932250977,-0.23361314833164215,-0.10135675221681595,-0.06029326468706131,0.0868598148226738,-0.1369761824607849,-0.48382413387298584,-0.16585081815719604,-0.029162630438804626,0.1506716012954712,-0.15828578174114227,-0.2724096477031708,0.00790486577898264,-0.16439597308635712,-0.09000818431377411,0.24120540916919708,-0.3151715099811554,0.12196280062198639,-0.4668162167072296,0.5815309882164001,-0.18636272847652435,0.04435083270072937,-0.13762794435024261,0.18109141290187836,0.286714106798172,0.10533298552036285,0.08137311786413193,-0.16011549532413483,-0.162728413939476,0.21655716001987457,0.4518324136734009,0.0518602691590786,-0.05240994691848755,0.34809184074401855,0.10128770023584366,0.0035812503192573786,-0.033368077129125595,-0.1519508957862854,-0.13183902204036713,-0.18879710137844086,0.09965270757675171,-0.10857909917831421,-0.13729718327522278,-0.16316856443881989,-0.32095205783843994,0.12126521021127701,0.47746747732162476,-0.0984949842095375,-0.13535451889038086,0.0616297610104084,-0.14278095960617065,-0.03075942024588585,-0.15919527411460876,-0.17150039970874786,-0.19233790040016174,0.003956392407417297],[0.04654523730278015,0.026191024109721184,0.19523201882839203,-0.11694551259279251,-0.1280183047056198,-0.657230794429779,-0.7562674283981323,-0.002437066985294223,0.0799601748585701,0.5363147854804993,-0.010874937288463116,-0.11711150407791138,-0.7790791392326355,-0.4014749526977539,-0.22939307987689972,-0.8408025503158569,0.298260897397995,-0.4321649372577667,0.38926711678504944,-0.26248660683631897,0.5170597434043884,-0.07501155138015747,0.12019327282905579,-0.7448791265487671,-0.3078259527683258,1.1910865306854248,0.20116010308265686,0.10340660810470581,0.4712952971458435,0.11154690384864807,-0.7028153538703918,0.656164288520813,0.10622288286685944,0.6700409054756165,0.151751309633255,-0.3975909650325775,-0.566706120967865,0.011359542608261108,0.17467427253723145,0.34181204438209534,0.37864452600479126,0.7153028249740601,-0.3488333225250244,1.0885158777236938,0.559583842754364,0.027454614639282227,0.6430947184562683,-0.34395530819892883,-0.40725114941596985,0.10508666932582855,0.33530136942863464,-0.3666289150714874,0.11564583331346512,-0.08789993822574615,0.10684174299240112,-0.06545685976743698,-0.056265782564878464,-0.07109569013118744,0.04621333256363869,-0.45467615127563477,0.5815572142601013,-0.30376899242401123,-0.20322586596012115,-0.7170205116271973,-0.060500361025333405,0.015468422323465347,-1.0686126947402954,0.2851041257381439,0.017523905262351036,0.04488721117377281,0.01021608617156744,0.0864354819059372,-0.8985870480537415,0.42197901010513306,0.10014280676841736,0.1234956681728363,-0.3306693434715271,0.03557996451854706,-0.44305697083473206,0.39631330966949463,-0.05062739551067352,0.15298742055892944,0.0013566199922934175,0.015438535250723362,0.32710570096969604,-0.013445422053337097,-0.29238614439964294,-0.2804987132549286,0.315266877412796,-0.1960906684398651,-0.24067269265651703,-0.7574275135993958,0.5492610931396484,-0.1481216847896576,0.09777890145778656,-0.503980278968811,-0.007317188661545515,-0.6431974172592163,-0.13019539415836334,0.19512751698493958,-0.10399157553911209,0.18656781315803528,-0.23900410532951355,-0.11873865127563477,-0.0968254953622818,0.20515160262584686,-0.07944215089082718,0.08972786366939545,0.8225274085998535,0.5529282093048096,0.19644856452941895,-0.024513162672519684,0.1566048562526703,0.5689166188240051,0.7901143431663513,-0.177212655544281,0.25847089290618896,-0.3410647213459015,-0.1797754019498825,-0.21917220950126648,-0.10260388255119324,-0.12286186963319778,-0.18091413378715515,-0.5812703371047974,0.17600739002227783,0.859711229801178,0.14372804760932922,0.1074368953704834],[-0.08968252688646317,0.15329678356647491,-0.2904760539531708,-0.004701897036284208,-0.5000982284545898,0.28415647149086,-0.21672283113002777,0.4299315810203552,0.2278444468975067,-0.6136232018470764,0.0608404204249382,0.07632619887590408,-0.017267871648073196,0.35256075859069824,-0.15191161632537842,-0.15498633682727814,0.3245600759983063,0.48435038328170776,-0.1420760601758957,-0.5493365526199341,0.05802154541015625,-0.0651516243815422,-0.39601218700408936,-0.3213845491409302,0.014695610851049423,0.40042275190353394,0.34162601828575134,-0.14165449142456055,-0.09323793649673462,-0.12988561391830444,0.17327073216438293,0.24410480260849,0.6747636795043945,0.1976996213197708,-0.02797962725162506,0.5672643780708313,-0.06640652567148209,-0.17428229749202728,-0.04981778562068939,0.6482372879981995,-0.2670624256134033,-0.4580332338809967,0.5231117010116577,0.34684276580810547,0.17279838025569916,0.22115063667297363,0.22090798616409302,-0.06716562062501907,0.335478812456131,-0.17344732582569122,0.4853975474834442,-0.08188457041978836,0.5649774074554443,0.11188671737909317,-0.18319575488567352,0.10860811173915863,-0.18838980793952942,-0.04699505865573883,0.2040136158466339,0.03592343628406525,-0.22170566022396088,-0.03861333057284355,0.06352408230304718,0.4258168935775757,-0.09736816585063934,0.23203903436660767,0.17437146604061127,0.12891770899295807,0.015927275642752647,-0.02234949916601181,-0.18723343312740326,-0.03531472012400627,0.31780239939689636,0.2932256758213043,0.1589350402355194,-0.15006643533706665,0.1848539113998413,-0.16639721393585205,0.3030986487865448,0.04478723928332329,-0.0963781550526619,-0.05619589984416962,0.01617269404232502,0.26041820645332336,0.18600551784038544,-0.1727062314748764,0.17999760806560516,0.13179515302181244,0.32196328043937683,0.009180957451462746,0.05481122061610222,0.13707934319972992,0.013579956255853176,0.06412078440189362,0.15214850008487701,0.2994157075881958,0.49225738644599915,0.14708028733730316,0.14980930089950562,-0.010146789252758026,0.024052845314145088,-0.4340009391307831,0.5540660619735718,-0.03443463146686554,0.17565284669399261,0.009041874669492245,0.2624121606349945,0.006256538908928633,0.7298892140388489,0.45630842447280884,-0.01897098682820797,0.3998120427131653,-0.005730807781219482,0.32322752475738525,-0.1464693397283554,-0.1411484330892563,0.4616321325302124,0.2161637395620346,0.26045602560043335,0.29698729515075684,-0.021349221467971802,-0.0873866155743599,-0.11361359804868698,0.4127041697502136,0.12882432341575623,0.15703679621219635,0.24800656735897064,-0.15576188266277313],[-0.13697466254234314,-0.26452258229255676,0.09525538980960846,0.05215616524219513,0.34632736444473267,0.4282090961933136,0.05323624983429909,-0.01760563999414444,-0.09162206202745438,-0.24524956941604614,0.021233264356851578,-0.11389067023992538,0.0842210203409195,0.1978047639131546,0.40628331899642944,-0.15565159916877747,-0.18854084610939026,0.06244916096329689,-0.12594974040985107,0.38578519225120544,-0.06589557975530624,0.12011978775262833,-0.14746496081352234,-0.10283439606428146,0.25081610679626465,-0.3357657492160797,-0.1644665151834488,-0.05863019824028015,0.2179817259311676,0.09260571002960205,0.2179541140794754,-0.358602911233902,0.006205420009791851,-0.24278879165649414,0.15050099790096283,-0.21991921961307526,-0.1578117161989212,0.13444092869758606,-0.005489230155944824,0.02285921201109886,0.29277676343917847,-0.062002528458833694,0.14302034676074982,-0.2478811889886856,-0.178038090467453,0.009154207073152065,-0.5591610670089722,0.46189820766448975,0.01621709018945694,0.08202631026506424,-0.07166265696287155,0.19001758098602295,-0.19858388602733612,-0.0947195440530777,0.02756153605878353,-0.09306814521551132,-0.31285858154296875,-0.11227157711982727,-0.0031932254787534475,0.16495105624198914,-0.1478652060031891,0.22447174787521362,0.10547854006290436,-0.4186728596687317,0.28054001927375793,0.001503488514572382,0.342073917388916,-0.26562443375587463,0.3176765441894531,-0.06072726845741272,-0.10955529659986496,0.03140079230070114,0.48633667826652527,-0.2521136403083801,-0.15189950168132782,-0.15602953732013702,-0.06552597880363464,-0.011302322149276733,-0.21623888611793518,0.016631605103611946,-0.02263730764389038,0.14797326922416687,0.13858886063098907,-0.39620867371559143,-0.034240059554576874,0.038848280906677246,0.04940889775753021,0.29282262921333313,-0.37024497985839844,0.2925828695297241,-0.3743250370025635,0.16013740003108978,-0.32612723112106323,-0.08380622416734695,-0.15243902802467346,0.4568846821784973,0.14040887355804443,0.01519382931292057,0.1338825225830078,0.037768539041280746,-0.1928510069847107,0.20162253081798553,-0.18764494359493256,-0.06621548533439636,-0.01959971711039543,0.30944085121154785,-0.06908717751502991,-0.026548191905021667,-0.36888840794563293,-0.06138046458363533,0.09532135725021362,-0.3385554552078247,0.08467072248458862,-0.016583507880568504,0.19037476181983948,-0.10756748169660568,-0.4421016275882721,0.10187064856290817,0.41863951086997986,-0.1392449587583542,-0.12394305318593979,-0.13289199769496918,-0.19461923837661743,0.1751246303319931,0.02138395607471466,0.08728209137916565,-0.06844550371170044,0.03622695803642273],[0.06870114803314209,0.04288799688220024,0.5774224400520325,0.1975252330303192,-0.09066133201122284,-0.4676540195941925,-0.3087492883205414,-0.1700952649116516,0.1871848851442337,0.4157413840293884,0.09041069447994232,-0.07902106642723083,-0.6168172359466553,-0.4783656597137451,0.004035948775708675,-0.7408612966537476,0.35592859983444214,-0.48185473680496216,0.2405400276184082,-0.10164020955562592,0.5388490557670593,0.1422581523656845,0.2831598222255707,-0.32355690002441406,-0.22677858173847198,0.3652440309524536,-0.17937318980693817,0.046850502490997314,0.5827939510345459,0.015197575092315674,-0.39346739649772644,0.518897533416748,0.1038103848695755,0.7408962249755859,-0.060031708329916,-0.24132587015628815,0.27689775824546814,0.03209768235683441,-0.15233974158763885,0.21166858077049255,0.40220358967781067,0.8122586607933044,0.09630164504051208,0.10804608464241028,0.7324519753456116,-0.15103738009929657,0.6100997924804688,-0.29802271723747253,0.03456216678023338,-0.1354878544807434,0.3079231381416321,-0.2274124026298523,0.2703271806240082,0.028382033109664917,-0.04396465793251991,-0.02469337359070778,0.0689367800951004,-0.028154388070106506,0.15449950098991394,-0.055041030049324036,0.24425460398197174,-0.3535502254962921,0.2883148789405823,-0.3602706491947174,0.005371991079300642,0.010598636232316494,-0.43880119919776917,0.1940842866897583,0.06840389966964722,0.09324458241462708,0.04752644896507263,0.16471534967422485,-0.3025318384170532,0.15292511880397797,-0.10181287676095963,-0.040570467710494995,0.19415275752544403,0.13375267386436462,-0.2997226417064667,0.3024289906024933,0.04476389288902283,-0.16332989931106567,-0.11534883826971054,0.46824219822883606,0.3225787281990051,-0.1125490814447403,-0.19013768434524536,-0.492045134305954,-0.01737397350370884,0.37739160656929016,-0.1004200279712677,-0.3199031949043274,0.28927889466285706,0.14305585622787476,-0.12573587894439697,-0.6833816170692444,-0.20712536573410034,0.032119035720825195,-0.053445469588041306,-0.05782037600874901,-0.10621581971645355,-0.08854825794696808,-0.04341788962483406,-0.0016968598356470466,-0.19743762910366058,0.07228876650333405,-0.051025036722421646,-0.08765042573213577,0.17165382206439972,0.13122715055942535,-0.059740688651800156,0.10623625665903091,0.0659957230091095,0.28808945417404175,0.47917383909225464,-0.10535718500614166,0.2806021571159363,-0.2345023900270462,0.1222374364733696,-0.11796852946281433,0.16266724467277527,0.1476655900478363,0.13923653960227966,-0.35393163561820984,0.03545732796192169,0.5095393061637878,0.1428217589855194,-0.0251951664686203],[-0.11374609172344208,-0.03062741458415985,-0.19501537084579468,-0.13231442868709564,-0.014043430797755718,0.33464908599853516,-0.26082515716552734,0.14596624672412872,-0.20286281406879425,-0.3782370388507843,-0.06730334460735321,-0.18698535859584808,0.028717080131173134,0.32670024037361145,0.0028433126863092184,-0.5647300481796265,0.02255266159772873,-0.2085942029953003,0.5166501998901367,-0.31525957584381104,0.1995900273323059,0.043597906827926636,-0.18037192523479462,-0.022293785586953163,0.34505489468574524,-0.2887420952320099,0.257311075925827,-0.13918334245681763,-0.37041085958480835,0.12754127383232117,0.027484556660056114,-0.005525205284357071,0.02914314530789852,0.15150244534015656,0.029027709737420082,0.5828885436058044,-0.01213181484490633,-0.08824481815099716,0.06530407071113586,0.03566368296742439,0.5539078712463379,0.07440941780805588,0.8177870512008667,-0.030745351687073708,0.18715021014213562,0.3079836666584015,-0.16224020719528198,0.20651817321777344,-0.08162917196750641,0.018225960433483124,0.01984548382461071,-0.18868111073970795,0.08039264380931854,0.2977186441421509,-0.16943064332008362,0.2617286443710327,-0.21971026062965393,-0.09101484715938568,0.3952672779560089,0.3393614590167999,-0.13280494511127472,0.3134481608867645,0.522466242313385,-0.1356174498796463,-0.3299335241317749,0.08994079381227493,-0.014190707355737686,-0.059317510575056076,0.3086802661418915,0.02161257527768612,0.14986415207386017,0.13970834016799927,0.1999015212059021,0.17250195145606995,-0.13438066840171814,-0.10775159299373627,0.015468942001461983,0.01352246105670929,0.2637515366077423,0.6819700002670288,-0.1154608428478241,-0.17275191843509674,0.046471480280160904,-0.03733273968100548,0.5541620254516602,-0.10822859406471252,-0.3674691319465637,0.4549848139286041,-0.08447419852018356,-0.21923767030239105,-0.1263362616300583,-0.03203670307993889,-0.3750351071357727,-0.13420453667640686,0.1276836097240448,0.3515568673610687,0.37685656547546387,0.07164037972688675,0.0385984443128109,-0.1714102178812027,-0.06316476315259933,0.318376362323761,-0.23948802053928375,0.014047055505216122,0.13561232388019562,0.4714585244655609,-0.20990608632564545,0.20060200989246368,-0.18563157320022583,0.09964773058891296,0.06420475989580154,-0.06543415784835815,-0.16830439865589142,0.04107831418514252,-0.026854023337364197,0.08925586938858032,0.4540195167064667,0.43970420956611633,0.1474483460187912,-0.2829170227050781,0.16313746571540833,0.13902612030506134,0.00610728282481432,0.5018528699874878,-0.15479271113872528,-0.42591455578804016,-0.09845158457756042,-0.14909495413303375],[-0.15260925889015198,-0.15843331813812256,0.02454426884651184,-0.05812527611851692,0.09373494982719421,0.3716520667076111,0.17422039806842804,-0.30013537406921387,-0.35939598083496094,0.28483912348747253,-0.0005894312052987516,-0.11319160461425781,0.39469805359840393,-0.3851962089538574,-0.132390096783638,-0.19965887069702148,0.665582537651062,0.12330556660890579,0.2979176640510559,0.15845926105976105,-0.3839639127254486,0.3645876944065094,0.4478977620601654,-0.28321123123168945,0.6422311663627625,0.009821953251957893,0.27288609743118286,0.1421777606010437,0.19012995064258575,-0.07464595139026642,0.8306072950363159,-0.10738181322813034,0.017419306561350822,0.17717944085597992,0.02559536322951317,-0.31755033135414124,-0.5506768822669983,-0.04879465699195862,-0.02555878460407257,0.506578803062439,0.3077651560306549,-0.20668451488018036,-0.08420795202255249,0.2698425352573395,0.15760360658168793,-0.08603141456842422,-0.3471139967441559,0.4042719602584839,0.5365840792655945,-0.018729493021965027,-0.28156542778015137,-0.2582022547721863,0.266582190990448,-0.17729541659355164,-0.005914755631238222,0.1752265989780426,-0.3674093186855316,-0.0829114317893982,0.19106891751289368,0.0061411685310304165,0.2155696302652359,-0.005123394541442394,0.3708316683769226,-0.22490017116069794,0.6365168690681458,-0.47567883133888245,0.5153274536132812,-0.30459585785865784,0.41170817613601685,0.03865538910031319,-0.17912788689136505,-0.051106397062540054,0.6871592402458191,-0.5098828673362732,0.0994853675365448,-0.11811969429254532,-0.47071534395217896,0.17651307582855225,-0.28742918372154236,-0.3299923241138458,-0.09399156272411346,0.04285995662212372,-0.13489800691604614,-0.5185213685035706,-0.4840424358844757,0.16779685020446777,0.5288318991661072,-0.11209692806005478,0.11796820908784866,0.010724961757659912,-0.038617849349975586,-0.32997235655784607,0.386779248714447,-0.10593234747648239,-0.13857658207416534,0.5936803817749023,-0.3160419166088104,-0.40342023968696594,0.0500238873064518,-0.13821062445640564,-0.19655509293079376,0.10395175963640213,-0.11262314021587372,0.007370038889348507,0.28779852390289307,-0.06806229054927826,0.05549866706132889,-0.05573119595646858,-0.0308750718832016,-0.5110160112380981,0.029195699840784073,-0.28221040964126587,-0.08593889325857162,0.26941683888435364,0.32596978545188904,-0.06854357570409775,-0.43260058760643005,0.3210163414478302,0.5347274541854858,0.3583470582962036,0.0015184581279754639,0.017895082011818886,0.12580643594264984,0.001800013822503388,-0.16058975458145142,0.24033236503601074,-0.3330632150173187,-0.17660093307495117],[-0.15569943189620972,0.25702252984046936,0.28737956285476685,0.09835781902074814,0.17019839584827423,-0.3247095048427582,-0.0020785608794540167,-0.11387135088443756,0.12932434678077698,0.7258132100105286,-0.07956790924072266,0.02837633341550827,-0.30478695034980774,-0.4345044493675232,0.14025892317295074,-0.44825831055641174,0.20294813811779022,-0.3261255621910095,0.16393128037452698,-0.05355016514658928,0.5939459204673767,0.08121052384376526,0.4900681674480438,-0.010622205212712288,0.01739889197051525,0.05342065915465355,-0.06851482391357422,-0.1223415955901146,0.6412511467933655,0.0033012479543685913,-0.045477110892534256,0.5528935194015503,-0.006792240310460329,0.7815155386924744,-0.009240534156560898,0.27924469113349915,0.28319934010505676,-0.05901537090539932,0.13384032249450684,0.08709298074245453,0.485523521900177,0.804227352142334,0.15470285713672638,-0.4198150932788849,0.5059168338775635,-0.08859355747699738,0.5254518389701843,-0.12153805047273636,0.4232257306575775,0.06528189778327942,0.11392246931791306,-0.3219434916973114,0.0324825756251812,0.2507818639278412,0.06618632376194,-0.19639775156974792,0.2398986965417862,0.12896525859832764,0.4853624701499939,-0.008142993785440922,-0.04744309186935425,-0.2393011748790741,0.19645024836063385,-0.17979814112186432,0.11393620818853378,-0.05792155861854553,-0.3012135326862335,-0.15496887266635895,0.43012961745262146,-0.1302178055047989,-0.15498927235603333,-0.13307082653045654,-0.07143532484769821,-0.03361806273460388,-0.06011663377285004,0.09214088320732117,0.3870466649532318,0.009879186749458313,-0.15826192498207092,0.31760385632514954,-0.07829869538545609,0.12896674871444702,0.05275902897119522,0.640832245349884,0.1428467035293579,0.05417093634605408,0.16321112215518951,-0.25170502066612244,-0.288423627614975,0.255449503660202,-0.07632545381784439,-0.119626484811306,-0.2488313615322113,0.1499531865119934,0.07378902286291122,-0.5659224987030029,-0.4038594365119934,0.2917649745941162,0.039135247468948364,-0.060534678399562836,-0.09816685318946838,-0.20288629829883575,0.10956732928752899,-0.022694682702422142,-0.03198324143886566,0.09297098964452744,0.40030476450920105,-0.17035454511642456,-0.08565976470708847,0.025570178404450417,0.07447132468223572,0.3167109489440918,-0.0845646932721138,0.41908442974090576,0.40385058522224426,-0.098635233938694,0.4379529058933258,0.009701291099190712,0.299518883228302,-0.19928309321403503,0.03403453528881073,-0.05413655564188957,0.16270728409290314,-0.17052097618579865,-0.12747561931610107,0.2982597053050995,0.002766216639429331,-0.11451111733913422],[-0.05499909818172455,-0.13720645010471344,-0.10179384797811508,-0.115620918571949,0.9954381585121155,0.7579872608184814,-0.4082258939743042,-0.5364419221878052,-0.9507943391799927,-0.3715076148509979,0.03483893722295761,-0.0017113479552790523,-0.34012216329574585,0.1916717290878296,0.2077404260635376,-0.7875860333442688,-0.3228442370891571,-0.7339223027229309,1.0758723020553589,0.4093863070011139,0.9425395727157593,-0.15230944752693176,0.5378871560096741,-0.1405186802148819,0.8960676193237305,-0.8637586236000061,-0.285888671875,-0.04636061191558838,-0.7879319787025452,-0.17668414115905762,-0.28806060552597046,0.08706560730934143,-0.48284414410591125,0.6593371033668518,-0.07614973187446594,0.9180098176002502,0.28209808468818665,0.06796185672283173,-0.08174543082714081,-0.10181854665279388,1.3743313550949097,0.5922497510910034,1.0772043466567993,-0.8590695858001709,0.5427535772323608,0.5878546237945557,-0.10791260749101639,0.42840808629989624,-0.4797467589378357,0.11892692744731903,-0.3788740634918213,-0.3403274416923523,-0.992026686668396,0.4171401560306549,0.15489599108695984,0.9990531206130981,-0.03247182071208954,0.09225386381149292,0.4629729390144348,0.5917546153068542,-0.07118135690689087,0.6307219862937927,1.2421280145645142,-0.5073332786560059,-0.5363292694091797,-0.07337170839309692,0.09070392698049545,-0.7539900541305542,0.7187235951423645,0.09678573906421661,-0.12554039061069489,0.06011465564370155,0.3756371736526489,0.4005238711833954,0.028118163347244263,0.03211855888366699,-0.8433502316474915,-0.17317786812782288,-0.04392945393919945,1.1907410621643066,0.07959222793579102,-0.10086154192686081,-0.09578896313905716,-0.5306687951087952,0.5421183705329895,-0.06432750076055527,-0.7860538363456726,0.7745367288589478,-0.5047547221183777,-0.4143712520599365,0.19642777740955353,-0.13572831451892853,-0.7426596879959106,0.11508995294570923,-0.06638289242982864,0.4362960755825043,-0.21298861503601074,0.17312367260456085,-0.023237967863678932,-0.049698952585458755,-0.14545723795890808,1.2146847248077393,-1.1312041282653809,-0.009319779463112354,-0.18788506090641022,0.5209686160087585,-0.8634770512580872,-0.12099972367286682,-1.0992302894592285,-0.679813027381897,0.048800550401210785,-0.7675999402999878,-0.1724160611629486,-0.3357571065425873,0.13986822962760925,0.06734174489974976,0.22522467374801636,0.8226029276847839,-0.05334401875734329,-0.42578428983688354,0.15646424889564514,0.10209921002388,-0.04836239665746689,0.06277401745319366,-0.09704551845788956,-0.4044221043586731,-0.27794739603996277,-0.005733609199523926],[-0.1687995344400406,-0.4388509690761566,-0.21786686778068542,0.05922858789563179,-0.5722013711929321,0.1821751445531845,0.013304350897669792,-0.7110757231712341,0.40118518471717834,0.810871958732605,-0.01879800669848919,0.03899148479104042,0.6663167476654053,-1.395896315574646,-0.5266749262809753,-0.3494460880756378,1.6741626262664795,0.21548603475093842,-0.004905507434159517,0.1978965550661087,-0.7500851154327393,0.9510196447372437,0.9118996858596802,-0.5529625415802002,1.021713376045227,1.2826143503189087,0.7522333860397339,-0.08134931325912476,0.8875117301940918,-0.028554648160934448,1.874671220779419,0.6154984831809998,0.055366240441799164,0.2191435843706131,-0.37749728560447693,-1.0195481777191162,-1.812094807624817,-0.08335293084383011,-0.12257827818393707,1.2985966205596924,-0.18296705186367035,-1.1636638641357422,-0.8284862637519836,1.5209710597991943,0.5885974168777466,0.018458615988492966,-0.4634830355644226,0.6656283140182495,1.5667123794555664,-0.06299973279237747,-0.5656293034553528,0.03434368222951889,1.0571801662445068,-0.46406206488609314,0.08263641595840454,-0.42570677399635315,-0.14586299657821655,0.13933506608009338,0.5552874207496643,-1.31477952003479,0.46589598059654236,-0.6340872049331665,-0.20928984880447388,0.08882621675729752,1.1325405836105347,-1.1526349782943726,0.342555969953537,-0.03211177885532379,-0.013223989866673946,0.0888652503490448,-0.007766287308186293,0.03915785998106003,0.29974788427352905,-1.0640175342559814,-0.030791938304901123,-0.050300538539886475,-0.501176118850708,-0.09581905603408813,-0.2083319127559662,-1.3897451162338257,-0.1702166646718979,0.035560399293899536,0.049617573618888855,-0.5309233069419861,-1.1512706279754639,-0.1431773155927658,1.1689727306365967,-0.7436920404434204,0.5145838260650635,0.17456525564193726,0.24284301698207855,-0.5759791135787964,1.3800240755081177,-0.1626640260219574,0.12130166590213776,0.5030031204223633,-0.7321906089782715,-1.010291576385498,-0.061584826558828354,-0.17408141493797302,-0.021855846047401428,-0.27882471680641174,0.5346893072128296,-0.03360623121261597,0.8811520338058472,-0.5346824526786804,0.9415016770362854,-0.1965629905462265,1.4674012660980225,-0.07829345017671585,-0.07376192510128021,0.031739722937345505,-0.0012292563915252686,0.6394370794296265,0.8626239895820618,0.08176487684249878,-0.24282124638557434,-0.7179127931594849,0.7473968267440796,1.1627434492111206,0.05938601493835449,-0.14257636666297913,0.06370598822832108,-0.014084323309361935,0.09084680676460266,1.5376925468444824,-0.2910217344760895,-0.04575777053833008],[-0.07093988358974457,0.25193285942077637,0.23906467854976654,0.05098211020231247,-0.056827690452337265,-0.22158418595790863,0.2568456828594208,-0.10899672657251358,0.14601506292819977,0.564719021320343,0.10199017077684402,0.1282031089067459,0.19395528733730316,-0.23239007592201233,0.4021425247192383,-0.1468227505683899,0.052473634481430054,-0.11595812439918518,0.05287535861134529,0.26389777660369873,0.5082539916038513,0.1126810610294342,0.33572858572006226,0.6144834160804749,0.45214298367500305,-0.43979591131210327,-0.23068848252296448,-0.1300106644630432,0.6258924603462219,0.1412971317768097,0.11610393226146698,0.1834036111831665,-0.09453729540109634,0.5188764929771423,0.04556386545300484,0.4805973470211029,0.6547994613647461,0.15831175446510315,0.12506112456321716,-0.0921488106250763,0.6250216960906982,0.7610522508621216,0.6712631583213806,-0.8707249760627747,0.393185555934906,-0.014341399073600769,0.3655731976032257,-0.5291356444358826,0.16560915112495422,0.05297792702913284,0.14103063941001892,-0.10595288127660751,0.4317353665828705,0.5517295002937317,-0.15309779345989227,-0.17005716264247894,0.012997039593756199,-0.1092539131641388,0.5457594990730286,0.4586082100868225,-0.27715468406677246,-0.1777704358100891,0.510989248752594,0.21132171154022217,0.010420757345855236,0.009552010335028172,-0.016962824389338493,-0.08641474694013596,0.359225332736969,0.18286238610744476,0.17271170020103455,-0.034922514110803604,0.14047344028949738,-0.0836496576666832,-0.08864262700080872,0.09451538324356079,1.032603144645691,0.1051783561706543,-0.2093697190284729,0.47013741731643677,-0.001156821846961975,0.10872688889503479,-0.11815354228019714,0.760349452495575,-0.036757417023181915,-0.059522584080696106,0.2733113169670105,-0.5105932950973511,-0.22240358591079712,0.07534705102443695,-0.24990782141685486,-0.06876951456069946,-0.5607630014419556,0.1519949734210968,0.03890882432460785,-0.4218714237213135,-0.553277313709259,0.48427119851112366,0.1619947999715805,0.12630805373191833,-0.09534594416618347,-0.2870118021965027,0.4187658429145813,-0.11446581035852432,-0.1895284354686737,0.03803827986121178,0.5316811203956604,-0.4693644344806671,-0.4677113890647888,-0.021724972873926163,-0.09163818508386612,0.3010543882846832,0.08268192410469055,0.06663265824317932,-0.005501560401171446,0.006860718131065369,0.5375996232032776,-0.1289219707250595,0.28939932584762573,-0.15391646325588226,0.11864402890205383,-0.1410418599843979,-0.08867557346820831,0.14996832609176636,0.14395925402641296,-0.24787193536758423,0.3226565420627594,-0.1533588171005249],[-0.1409858614206314,0.32951128482818604,0.06501920521259308,0.11072789132595062,0.057241152971982956,-0.014516235329210758,0.3880544602870941,0.17297276854515076,0.5058954954147339,-0.006081748753786087,0.05355818197131157,-0.20073498785495758,-0.11238993704319,-0.099953293800354,-0.09748785197734833,0.014218686148524284,-0.07208625972270966,0.38491660356521606,0.059700608253479004,0.017743892967700958,-0.017717180773615837,0.2650201916694641,-0.2427576333284378,0.12268751859664917,0.2588731646537781,0.07152754068374634,-0.10170241445302963,-0.025584861636161804,0.34471240639686584,-0.15307104587554932,0.29002317786216736,0.008181547746062279,0.34447577595710754,0.09681613743305206,0.10468828678131104,-0.18646781146526337,-0.13902945816516876,-0.07983938604593277,0.17268404364585876,-0.39183035492897034,0.12555085122585297,-0.08421057462692261,-0.03882093355059624,0.28700554370880127,-0.0636994019150734,-0.33471405506134033,0.01989072374999523,-0.18511205911636353,0.6094266772270203,-0.07607781887054443,0.23550967872142792,0.21713757514953613,0.24684101343154907,-0.2701182961463928,0.15820929408073425,-0.153631791472435,-0.2859858572483063,-0.128434419631958,0.19050773978233337,-0.25651365518569946,-0.13883966207504272,0.34995272755622864,-0.28250783681869507,0.23938554525375366,0.12883725762367249,-0.00945307407528162,0.07166986167430878,0.3234349489212036,0.04669848829507828,-0.10056115686893463,0.05976269766688347,0.1477443128824234,0.4485877752304077,0.08831450343132019,-0.02945387363433838,0.044678494334220886,0.2482907921075821,-0.09126032143831253,0.296709805727005,0.18966710567474365,0.09894025325775146,0.14919430017471313,-0.10935477912425995,0.3483748137950897,0.21518762409687042,-0.17565594613552094,0.3587990403175354,-0.3028048872947693,0.17044107615947723,0.1750468909740448,-0.09022250771522522,0.26015275716781616,0.15370027720928192,-0.08655483275651932,-0.02794833481311798,0.025795953348279,-0.03477085381746292,-0.15184903144836426,-0.07165714353322983,-0.08048834651708603,-0.12067525833845139,-0.3420754671096802,0.2021798938512802,0.05249231681227684,-0.16317006945610046,0.17171770334243774,0.5672082901000977,0.3632170259952545,0.1448102444410324,0.3398238718509674,0.010727643966674805,0.2768523693084717,0.021283134818077087,0.18731769919395447,-0.27558669447898865,0.026065826416015625,-0.028325635939836502,0.04513705521821976,0.11540423333644867,-0.1565987914800644,-0.1459755003452301,0.13582995533943176,-0.04711122438311577,0.34146589040756226,-0.13716769218444824,0.08932895213365555,-0.166412815451622,-0.02740386128425598],[-0.14602252840995789,-0.9040238857269287,0.2709718346595764,-0.07693511247634888,-0.48116379976272583,-0.058670252561569214,0.6003581285476685,0.09089458733797073,0.03207680583000183,-0.6405773758888245,-0.07311821728944778,0.10801912844181061,-0.0986887663602829,0.39927324652671814,0.3307294547557831,0.32207852602005005,-0.24694935977458954,-0.16446925699710846,-0.6268071532249451,-0.21506747603416443,-0.05348531901836395,-0.1070161685347557,0.2742583751678467,0.3453330397605896,-0.37706416845321655,-0.48582926392555237,0.20698073506355286,-0.12031283974647522,0.10204955190420151,-0.17581230401992798,-0.003875273047015071,-0.0481216199696064,-0.41393667459487915,0.05062568187713623,0.5393226146697998,-0.35083910822868347,0.18244069814682007,-0.044734060764312744,-0.15951088070869446,-0.17941488325595856,-0.40589526295661926,0.38370949029922485,-0.25639888644218445,-0.829391598701477,-0.17325031757354736,-0.2024913728237152,-0.0957856997847557,0.40861690044403076,-0.2686505913734436,-0.037041716277599335,-0.12732729315757751,0.061336349695920944,-0.18146319687366486,-0.2165759950876236,-0.16511543095111847,0.1442795693874359,-0.13917098939418793,0.005039989948272705,-0.4147878587245941,0.10991609841585159,-0.28419968485832214,0.025079376995563507,-0.07819042354822159,-0.6340561509132385,-0.11530271172523499,0.3327372074127197,0.4419177174568176,-0.3937831521034241,-0.0017146184109151363,-0.0015211941208690405,0.0469314381480217,-0.12042458355426788,0.19011785089969635,-0.13456836342811584,0.08412382006645203,-0.16980291903018951,-0.0821370780467987,0.1664656698703766,-0.7260801792144775,-0.00454113632440567,-0.1459950953722,-0.1729738861322403,-0.013772282749414444,-0.303987056016922,-0.1790807545185089,0.1597229242324829,-0.12472215294837952,0.49279817938804626,-0.07577590644359589,0.3354209065437317,0.24809031188488007,0.2942492961883545,-0.7030132412910461,-0.06437018513679504,0.14475534856319427,-0.0486566498875618,0.10358893871307373,-0.010110611096024513,-0.07024601101875305,0.08794935792684555,-0.18721963465213776,0.16027221083641052,0.056156255304813385,-0.14846372604370117,0.0870484784245491,-0.7487826943397522,-0.33962833881378174,0.18099184334278107,-0.40275025367736816,0.10034739226102829,-0.15511049330234528,0.17803846299648285,0.07111352682113647,-0.6276715397834778,-0.02925325743854046,0.15568265318870544,-0.33837032318115234,0.060863688588142395,0.11302655190229416,-0.26143214106559753,-0.09514725208282471,-0.08877185732126236,-0.038603365421295166,-0.11470146477222443,0.02846023440361023,-0.3678838908672333,0.33210989832878113,0.12658601999282837],[-0.1769299954175949,0.04213298484683037,0.4876377582550049,-0.024872424080967903,-0.4481022357940674,0.15935175120830536,-0.44044241309165955,0.9277570843696594,-0.1203927993774414,-0.07774381339550018,0.08688328415155411,0.011404206976294518,-0.32073813676834106,-0.07688862830400467,0.7799191474914551,-0.24740836024284363,-0.4400201439857483,0.06100728362798691,-0.3083646297454834,-0.08540090173482895,-0.37859079241752625,-0.6875119209289551,-0.7118434906005859,0.22374436259269714,-0.035240523517131805,0.37078794836997986,0.5055977702140808,0.17501434683799744,0.013336237519979477,-0.1601380705833435,-0.42652058601379395,-0.5049026608467102,0.23520724475383759,-0.5043553113937378,0.05609621852636337,0.35669171810150146,0.9118978381156921,0.06904871761798859,0.005866885185241699,-0.04020971804857254,-0.5307281613349915,-0.17677927017211914,-0.1525781899690628,0.5055245757102966,-0.5692440867424011,-0.3653722405433655,0.37757617235183716,1.0387996435165405,-0.9354665875434875,-0.028489509597420692,0.22526304423809052,0.06183360889554024,0.23729613423347473,0.40161845088005066,-0.11953770369291306,-0.20684495568275452,-0.21402175724506378,-0.0053090900182724,-0.5001850128173828,0.4315283000469208,-0.25799211859703064,-0.30953145027160645,-0.0728221908211708,0.16649790108203888,0.2501748204231262,0.5915879011154175,1.249291181564331,0.6676093935966492,-0.18834100663661957,0.0997273400425911,0.1612621545791626,0.15647904574871063,0.16047115623950958,0.8466838598251343,0.10064560174942017,-0.14420610666275024,1.2693160772323608,-0.14643791317939758,-0.23555077612400055,0.26560279726982117,-0.02139393985271454,-0.0039434731006622314,-0.08715426176786423,-0.25868484377861023,0.4238758385181427,0.12832528352737427,-0.5833156704902649,0.05099256709218025,-0.0010181294055655599,0.7440477013587952,-0.2016325294971466,0.9209504127502441,0.886084794998169,0.15854939818382263,-0.15143349766731262,-0.1392335146665573,-0.0065076155588030815,0.5401869416236877,0.1447908878326416,0.012712446041405201,-0.062337201088666916,0.15311600267887115,0.1903335452079773,0.1754564493894577,0.4025828242301941,-0.09455806761980057,-0.7196255326271057,0.35892605781555176,0.26620760560035706,0.5131422877311707,0.10696356743574142,0.4452790915966034,0.12240654230117798,-0.05615919083356857,0.5987577438354492,0.018960312008857727,0.03552315756678581,-0.3952513337135315,0.4242064654827118,0.007287011947482824,-0.1519874781370163,-0.042300231754779816,-0.004257548600435257,-0.049937501549720764,0.02045455574989319,-0.47177088260650635,0.8816359639167786,-0.003774017095565796],[0.16255596280097961,0.09430171549320221,0.5279867649078369,0.10488008707761765,-0.19795073568820953,-0.423431932926178,0.13238540291786194,-0.3297214210033417,0.395611971616745,0.46260136365890503,-0.12552663683891296,-0.17813970148563385,-0.33216795325279236,-0.1408013552427292,0.43143171072006226,-0.4434111714363098,0.0973282903432846,-0.312078058719635,0.058720361441373825,0.36186540126800537,0.4127922058105469,-0.09247143566608429,0.3178800344467163,-0.28376051783561707,-0.04044809192419052,0.2975921630859375,0.13475389778614044,0.06624627113342285,0.7415247559547424,0.06030602753162384,0.14669863879680634,0.07003325968980789,-0.08641675114631653,0.05931815505027771,0.5083178877830505,-0.19822464883327484,-0.48505184054374695,-0.06561630219221115,-0.17339080572128296,-0.35727229714393616,-0.09169071167707443,0.3898821771144867,-0.24963003396987915,0.012288990430533886,0.0626489520072937,-0.11685150116682053,-0.11119406670331955,-0.007869239896535873,0.28407415747642517,-0.11699647456407547,0.3100461959838867,0.38206103444099426,0.558038592338562,-0.34222647547721863,0.09463560581207275,-0.16050630807876587,0.42868492007255554,0.0643237829208374,-0.0523030050098896,-0.6286746859550476,0.549596905708313,0.0009689572616480291,-0.5605825185775757,-0.2758622169494629,0.3788818120956421,0.23862361907958984,0.04728662595152855,0.6113811135292053,0.1920912265777588,0.12095043063163757,-0.07510343194007874,-0.09656496345996857,-0.16104274988174438,0.1281345933675766,-0.06253610551357269,0.09215438365936279,0.11337343603372574,-0.15541917085647583,-0.053790848702192307,0.1936454176902771,0.13763457536697388,0.1044316291809082,0.1256086826324463,0.15890884399414062,0.17829979956150055,0.10469642281532288,0.5261743068695068,-0.18860195577144623,-0.10562152415513992,0.33753278851509094,0.07054310292005539,-0.03800550103187561,0.45626384019851685,0.08665278553962708,-0.030094092711806297,-0.2038688063621521,-0.37187331914901733,-0.7112545371055603,0.033521950244903564,0.050857752561569214,0.05967557057738304,-0.06685396283864975,-0.027213510125875473,-0.17028842866420746,-0.0499894805252552,-0.14040464162826538,0.0333281010389328,0.3070148229598999,0.19546489417552948,0.2831919193267822,0.08919814974069595,0.3132694363594055,0.0902349054813385,0.12400921434164047,-0.22819268703460693,0.12449219822883606,0.07046177983283997,-0.2353920340538025,-0.11155689507722855,-0.18609464168548584,-0.14357955753803253,-0.13833418488502502,0.12789388000965118,0.12421676516532898,-0.15435971319675446,0.24556228518486023,0.26944783329963684,-0.1695748269557953],[-0.1047271341085434,-0.4412502944469452,0.050456758588552475,0.034962259232997894,0.2297079861164093,0.10623122751712799,0.07719199359416962,-0.1872316598892212,-0.3269914388656616,0.3976721465587616,-0.08690013736486435,0.051135119050741196,-0.15342694520950317,0.2048780620098114,-0.0375809483230114,-0.2142782211303711,-0.480095773935318,-0.15392860770225525,0.11462908983230591,-0.1421445906162262,0.2497742772102356,-0.23677577078342438,0.1800731122493744,0.3519541919231415,-0.17473670840263367,-0.2987275719642639,-0.2313854843378067,-0.12936259806156158,-0.3005678057670593,0.04808719456195831,-0.062184300273656845,-0.2424636334180832,-0.49219799041748047,-0.12680843472480774,0.187308669090271,0.20949900150299072,0.11245793104171753,0.035066068172454834,0.0336117148399353,-0.3605360984802246,-0.20281195640563965,0.08060867339372635,0.2612675130367279,-0.5904400944709778,-0.0964813157916069,0.5040349960327148,-0.02871459536254406,-0.03940114006400108,-0.2140127271413803,-0.1467479169368744,-0.31359177827835083,-0.10906572639942169,-0.24696052074432373,0.06022043898701668,0.12339893728494644,0.1991453319787979,-0.2826378047466278,-0.061612531542778015,-0.15904393792152405,0.11046306788921356,-0.2033938616514206,-0.19489997625350952,-0.03345349431037903,-0.23497124016284943,-0.18400608003139496,-0.3023495376110077,-0.10596248507499695,-0.18484343588352203,0.7060097455978394,-0.12527433037757874,0.085856594145298,-0.09223052859306335,0.0459456630051136,-0.18316417932510376,-0.11671417951583862,0.12702736258506775,-0.30719050765037537,-0.1612318456172943,0.15412026643753052,-0.018143413588404655,0.15840476751327515,-0.1371954083442688,0.11537051200866699,-0.43789270520210266,-0.18990905582904816,-0.11509142816066742,-0.17218545079231262,0.3099122643470764,0.4408199191093445,0.0651470199227333,0.6860166192054749,-0.41737207770347595,-0.12702006101608276,-0.035135239362716675,0.04340706765651703,0.05191909521818161,-0.06475155800580978,0.195766419172287,0.0984494611620903,0.041010379791259766,-0.028667502105236053,0.26263514161109924,-0.548247218132019,-0.13160786032676697,0.1289667785167694,0.13157324492931366,-0.6429908871650696,0.05408405885100365,-0.5223952531814575,-0.5030309557914734,0.06568591296672821,-0.2857014834880829,0.09674423933029175,-0.11744625866413116,-0.005075161345303059,0.11331242322921753,-0.6431859731674194,0.2194908708333969,0.01832660101354122,0.09421483427286148,0.022171974182128906,-0.054366011172533035,-0.027589546516537666,0.27750563621520996,0.029627755284309387,-0.2375577837228775,-0.29068779945373535,-0.06198173016309738],[-0.09217619895935059,-0.09373515844345093,0.09994138777256012,-0.16089388728141785,0.377271443605423,0.061572153121232986,-0.12190141528844833,-0.12404142320156097,-0.03779879957437515,0.11568693071603775,0.09813116490840912,-0.05849306285381317,-0.10329414904117584,-0.2032066285610199,-0.549628734588623,-0.2326217144727707,0.6152212619781494,0.17405614256858826,0.1744675487279892,-0.20345163345336914,-0.1539243906736374,0.13700847327709198,0.20506244897842407,-0.08729081600904465,0.2509978115558624,0.47772806882858276,-0.1832531839609146,-0.14080458879470825,0.02862665243446827,-0.17654430866241455,0.08104211837053299,0.07921788096427917,-0.42111602425575256,0.5031022429466248,0.2706203758716583,-0.08141343295574188,-0.14562784135341644,0.07414862513542175,-0.17384180426597595,0.18828821182250977,-0.4793685972690582,-0.3532782793045044,-0.4335227906703949,0.6551892161369324,0.4565178155899048,-0.09993011504411697,-0.07727736234664917,0.8344548344612122,-0.12271767109632492,-0.13930800557136536,-0.3971335291862488,0.3874530494213104,-0.08169645816087723,-0.20172053575515747,-0.05063668265938759,0.24161694943904877,0.002400441328063607,0.10752707719802856,0.004252298269420862,0.003468151669949293,0.2306346744298935,-0.016538619995117188,0.10695325583219528,-0.12291384488344193,0.0675739198923111,-0.3411266803741455,0.15459656715393066,0.45044267177581787,0.3709137737751007,-0.033410295844078064,0.04372840002179146,0.04821667820215225,0.24908599257469177,0.06826846301555634,-0.03839503228664398,0.04537661373615265,-0.22520503401756287,-0.10643245279788971,-0.18554066121578217,-0.02374160662293434,0.15948057174682617,0.00753958523273468,-0.07623973488807678,-0.02452212944626808,0.06088437885046005,0.10588890314102173,-0.5183128714561462,0.12998835742473602,0.1214037537574768,0.7903781533241272,0.07860234379768372,-0.5387886166572571,0.39782094955444336,-0.08177163451910019,0.1687362790107727,0.3554542362689972,0.04034242033958435,0.22806888818740845,0.10749698430299759,0.10173135250806808,-0.12560904026031494,0.2852764129638672,0.005313029047101736,0.08858401328325272,0.2206375002861023,-0.5188950300216675,-0.1848357766866684,0.31198233366012573,0.13106940686702728,0.05718551576137543,-0.10520262271165848,0.4005016088485718,0.07049766182899475,0.11608314514160156,0.9274218678474426,0.006340876221656799,0.18521179258823395,0.14200374484062195,0.3628940284252167,0.1334189623594284,0.12051206827163696,0.04584793373942375,-0.1535152792930603,-0.2691601812839508,-0.1156703531742096,0.2119511514902115,-0.15242519974708557,0.15500932931900024],[0.1560300588607788,-0.1496179848909378,0.7258516550064087,-0.009914522059261799,0.021686946973204613,-0.7097212076187134,-0.027147024869918823,-0.5759751200675964,0.3015459477901459,0.3954439163208008,-0.0015775529900565743,-0.19769765436649323,-0.4396633803844452,-0.5925204753875732,0.5838292837142944,-0.5156428217887878,0.1468663513660431,-0.8456094861030579,-0.22562481462955475,0.42292705178260803,0.8051617741584778,-0.30745023488998413,0.9493134617805481,-0.28906774520874023,-0.3686039447784424,0.6303198337554932,0.5442655086517334,0.11220768094062805,0.7866674065589905,0.07729509472846985,0.044821642339229584,0.356045663356781,0.011811974458396435,0.0533098466694355,0.6948509216308594,-0.2376628965139389,-0.3744789958000183,0.023460477590560913,-0.026694312691688538,0.026217667385935783,0.0023937865626066923,0.8914551138877869,-0.07967503368854523,0.16954809427261353,-0.006475860718637705,0.014601333998143673,0.22545813024044037,0.21648180484771729,-0.2979475259780884,0.013819461688399315,0.5463122129440308,0.1661083698272705,0.586219072341919,-0.37732425332069397,-0.013920973055064678,-0.551131546497345,0.8496373295783997,-0.08810009062290192,-0.3156340420246124,-0.6838526129722595,0.8913512229919434,-0.07654497027397156,-0.3216840326786041,-0.3156580626964569,0.6344789266586304,0.7005480527877808,-0.23843257129192352,0.4745067358016968,0.3955566883087158,-0.002964726649224758,0.04170692339539528,0.011826284229755402,-0.6146126985549927,0.4997766315937042,0.03145439922809601,-0.10127583146095276,-0.273902028799057,0.0003082156181335449,-0.2800666391849518,0.075437031686306,-0.07116000354290009,-0.0988285169005394,-0.17974111437797546,-0.05438060313463211,0.26511719822883606,-0.057970695197582245,0.24898657202720642,-0.2555626332759857,-0.11838986724615097,0.5391910076141357,0.03388633579015732,0.1540500819683075,0.09118445217609406,0.11674138903617859,-0.14331123232841492,-0.6419072151184082,-0.2263859361410141,-0.8459478616714478,-0.169459730386734,-0.0007305503240786493,0.12002281099557877,0.00949931237846613,0.03854387253522873,-0.11087677627801895,0.16673323512077332,-0.2443101406097412,0.004474936053156853,-0.007706520613282919,0.13278624415397644,-0.0615769699215889,-0.021905578672885895,0.3513853847980499,0.03757964074611664,-0.29509100317955017,-0.26714199781417847,0.0662907212972641,0.20218801498413086,-0.6049483418464661,-0.47348693013191223,-0.3249164819717407,-0.09758653491735458,-0.14167068898677826,-0.10295233875513077,0.1413128674030304,0.09854987263679504,0.6130340099334717,0.7003396153450012,-0.09697727859020233],[-0.04401141405105591,0.1886509209871292,-0.1680731475353241,-0.1223803386092186,-0.38476401567459106,0.008280693553388119,-0.6345691680908203,0.11767831444740295,-0.10273293405771255,0.3543435037136078,0.01640460267663002,-0.04582260549068451,0.051806725561618805,0.08919131010770798,0.5031017065048218,-0.2918805480003357,-0.7421658039093018,-0.14767998456954956,-0.5220497250556946,0.500521183013916,-0.0327305942773819,-0.8418164849281311,-0.401841402053833,0.38459068536758423,-0.3822697401046753,0.24698157608509064,0.532492458820343,-0.12687209248542786,0.19726504385471344,0.05125986039638519,-0.40886378288269043,-0.7504786252975464,0.32561641931533813,-0.8607101440429688,-0.25139594078063965,0.5054095387458801,0.182272806763649,-0.09564922004938126,-0.10290944576263428,-0.2567850649356842,-0.2854441702365875,-0.1667795479297638,0.2862367331981659,0.014727648347616196,-0.8698975443840027,0.489321231842041,0.1211596354842186,-0.8625687956809998,-0.7074083685874939,0.021571919322013855,0.4227067232131958,0.5377553105354309,0.3022008538246155,0.42278236150741577,-0.08774197846651077,-0.5129738450050354,0.4451954960823059,-0.16560591757297516,-0.5252388715744019,-0.2843724489212036,0.10133840888738632,-0.3745332956314087,-0.2705034911632538,0.09123026579618454,0.43047621846199036,0.4707946181297302,0.08673879504203796,0.20747816562652588,-0.5119248628616333,-0.08698010444641113,0.15324264764785767,-0.1330069899559021,-0.1491711288690567,0.1785547435283661,-0.07035847008228302,0.0038083791732788086,0.6597098708152771,0.053308725357055664,0.17169375717639923,0.1260260045528412,0.031901612877845764,-0.12792375683784485,-0.07602553069591522,-0.09784989058971405,-0.07217429578304291,0.04635533690452576,0.36551907658576965,-0.2966572940349579,0.5277652144432068,-0.11105441302061081,0.5246744155883789,0.3629356622695923,0.2803698182106018,-0.1709384173154831,0.1345047652721405,-0.3713792860507965,-0.06297394633293152,-0.19032984972000122,-0.07921476662158966,-0.08427843451499939,-0.021120654419064522,-0.46351611614227295,-0.33681952953338623,0.08897703886032104,0.2246064990758896,0.3528653383255005,-0.5169888734817505,-0.05353045091032982,0.13099949061870575,-0.1457974910736084,-0.09787733852863312,-0.1487927883863449,0.12870094180107117,-0.6103938817977905,-0.35906630754470825,-0.0242825448513031,-0.1747734546661377,-0.6357928514480591,-0.5937367677688599,0.05554971098899841,-0.07597692310810089,-0.0349922701716423,0.0003959870373364538,0.524200439453125,0.05674920976161957,-0.1899184137582779,0.6090543270111084,-0.1749064326286316],[0.10734876990318298,-0.4249657392501831,0.40954965353012085,-0.0971636027097702,0.1724972128868103,-0.16594985127449036,-0.034120623022317886,-0.26542240381240845,0.39427649974823,0.025211302563548088,0.06794095784425735,0.10788284987211227,-0.09838036447763443,-0.15035907924175262,-0.7275536060333252,-0.07034854590892792,0.7201057076454163,-0.04657522216439247,0.15164832770824432,-0.3153477907180786,0.12328524142503738,0.2861776351928711,0.5705255270004272,-0.05670418217778206,0.09826347976922989,0.5275480151176453,-0.07150742411613464,-0.06555156409740448,-0.01727983169257641,-0.06925936788320541,0.08975653350353241,0.5891003608703613,-0.3098582923412323,0.8136095404624939,0.3192502558231354,-0.22341865301132202,-0.8185132741928101,0.1685781478881836,-0.08262915164232254,-0.11184815317392349,-0.40127941966056824,0.05936663597822189,-0.29628288745880127,0.49994710087776184,1.1937587261199951,-0.3240797519683838,0.04960937425494194,0.4406273365020752,-0.2119557112455368,0.0010696443496271968,-0.26947855949401855,0.2485726773738861,-0.0713568702340126,-0.26709771156311035,0.016052596271038055,0.23340605199337006,0.19173242151737213,-0.04773004353046417,-0.22665391862392426,-0.23831334710121155,0.4497891366481781,0.17375032603740692,0.08608326315879822,0.01174117811024189,0.12575556337833405,-0.008729465305805206,-0.6388314366340637,0.6673827767372131,0.3445099890232086,-0.024681374430656433,-0.08461079001426697,-0.12931573390960693,-0.07777034491300583,0.4490498900413513,0.1747497320175171,0.1030072569847107,-0.11682291328907013,0.15210914611816406,-0.499665230512619,0.21438103914260864,0.0706220269203186,-0.12254688143730164,0.02676699310541153,0.2832334339618683,0.19087356328964233,0.07040981948375702,-0.3180444538593292,0.2148289680480957,0.24819611012935638,-0.003125888993963599,0.16902777552604675,-0.47999706864356995,0.317780077457428,0.021275654435157776,0.07564878463745117,0.15864112973213196,0.19922137260437012,-0.06903914362192154,-0.03531390428543091,0.2327451854944229,-0.1616813689470291,0.2802165448665619,0.30406615138053894,-0.07733845710754395,-0.18046483397483826,-0.3586884140968323,0.01813557557761669,0.4990401864051819,0.22847425937652588,0.5261530876159668,0.028286876156926155,0.7949619889259338,-0.047091200947761536,-0.09536359459161758,0.9273950457572937,-0.13609346747398376,0.2953876256942749,0.10768778622150421,0.16284029185771942,0.23562107980251312,0.030858322978019714,-0.07108036428689957,-0.021309196949005127,-0.10428839176893234,-0.15453824400901794,0.6082485318183899,0.04665270075201988,-0.012062013149261475],[0.06307779252529144,-0.5718623399734497,1.1990892887115479,0.11173031479120255,-0.2845185101032257,-1.1724973917007446,0.1563529223203659,-0.9199467301368713,0.5293540954589844,0.4412916898727417,-0.1727408468723297,0.017758995294570923,-0.5855111479759216,-0.705695390701294,0.8929927349090576,-0.49362921714782715,0.16923867166042328,-1.1702641248703003,-0.4022557735443115,0.4828011095523834,1.0405168533325195,-0.33103668689727783,1.244398832321167,-0.5630306005477905,-0.6496217846870422,0.6533865928649902,0.9500724673271179,-0.11343960464000702,1.1113678216934204,0.16586536169052124,-0.38366976380348206,0.8129544258117676,-0.221657395362854,-0.1939513385295868,0.764539897441864,-0.11991550773382187,-0.39341050386428833,-0.16545510292053223,-0.16768120229244232,0.10428811609745026,-0.037861015647649765,1.1929123401641846,-0.11797080188989639,0.09721365571022034,0.0011705972719937563,-0.004169227555394173,0.7384924292564392,0.16233724355697632,-0.4765516519546509,-0.131456196308136,0.5567026734352112,0.21014228463172913,0.6739410758018494,-0.69580078125,-0.018247991800308228,-0.48874133825302124,1.2851767539978027,0.11822190880775452,-0.1560533195734024,-0.7515312433242798,1.197535514831543,-0.32121795415878296,-0.5640519857406616,-0.6852070689201355,0.903278648853302,0.8234516978263855,-0.40511828660964966,0.9498204588890076,0.5548846125602722,0.09008032828569412,-0.09401755779981613,0.04059180989861488,-1.2074576616287231,0.7861819267272949,-0.01667816936969757,-0.006605744361877441,-0.08541197329759598,-0.07718830555677414,-0.7037050127983093,0.16875894367694855,-0.04981715977191925,0.06622184813022614,-0.1087198406457901,-0.11150260269641876,0.4867456555366516,0.015116393566131592,0.2424442619085312,-0.31234210729599,0.1885557323694229,0.46980777382850647,0.17970065772533417,-0.16165226697921753,0.3561694025993347,-0.018064633011817932,0.08909863978624344,-0.9852545857429504,-0.42449867725372314,-1.0677098035812378,-0.022707760334014893,0.12768679857254028,0.004951271694153547,-0.001158239203505218,-0.089396633207798,0.06609586626291275,0.4848993122577667,-0.15797743201255798,-0.14295917749404907,0.11740510910749435,-0.030486976727843285,-0.24996532499790192,-0.16716231405735016,0.3819190561771393,-0.1550227254629135,-0.41662195324897766,-0.21735608577728271,-0.13384822010993958,0.28392279148101807,-1.0075284242630005,-0.7654579877853394,-0.7079139351844788,0.13056883215904236,-0.04922136664390564,-0.09583926200866699,-0.04387589171528816,-0.09153372794389725,0.6096978783607483,0.9116412401199341,-0.10471994429826736],[-0.0998513475060463,0.6031808853149414,0.02141173556447029,-0.09776924550533295,-0.8891221284866333,0.12824967503547668,-1.035036563873291,0.6349183917045593,-0.08631155639886856,0.4937146306037903,-0.00997515581548214,0.005187646485865116,0.5416561961174011,-0.02750512957572937,1.3487929105758667,-0.8751506805419922,-1.0863147974014282,0.1752391755580902,-0.3502090871334076,0.8052590489387512,-0.3010559678077698,-1.7252295017242432,-0.7693357467651367,0.4085395932197571,-0.7221999764442444,0.18978208303451538,1.208643913269043,-0.1431151181459427,0.4929374158382416,0.00763973593711853,-0.624759316444397,-1.0920835733413696,1.1587684154510498,-1.3745646476745605,-0.051305484026670456,0.6962553262710571,0.2740689516067505,-0.10769425332546234,0.16262179613113403,0.24828694760799408,-0.04230618104338646,-0.030471550300717354,0.7189945578575134,0.22371754050254822,-1.4447975158691406,0.6954972147941589,0.03073073737323284,-0.9826133251190186,-0.7192339897155762,-0.16269585490226746,1.2346924543380737,0.6737903952598572,0.4529339671134949,0.521264910697937,-0.18140771985054016,-0.6953248977661133,0.6807023882865906,0.15478554368019104,-0.8056403398513794,-0.5562568306922913,-0.10441920906305313,-0.5916259288787842,-0.5543283820152283,0.09189687669277191,0.9262243509292603,0.9999762773513794,0.4888247847557068,0.564791202545166,-1.2843571901321411,-0.14033252000808716,-0.14414365589618683,0.08746692538261414,-0.3198089003562927,0.1816418468952179,-0.06941322237253189,0.16967174410820007,1.1792573928833008,0.008025795221328735,0.07749474048614502,-0.17298069596290588,-0.06256601959466934,-0.16227297484874725,-0.06948018819093704,0.07579189538955688,0.05968475341796875,0.0071867406368255615,0.6813576221466064,-0.8339552283287048,0.3258459270000458,-0.38178518414497375,0.17443762719631195,1.0288501977920532,0.7872005701065063,-0.09000833332538605,-0.1530379205942154,-0.4151020050048828,0.37392252683639526,-0.0824185237288475,-0.06632190942764282,0.0879146084189415,0.08014662563800812,-1.0249576568603516,-0.29481369256973267,-0.04274442419409752,0.9251440167427063,1.0738905668258667,-0.5023871660232544,0.13777384161949158,0.3020252585411072,0.10746406018733978,0.12221863865852356,-0.5053786635398865,-0.08391270786523819,-1.032623291015625,-0.9601673483848572,-0.12255507707595825,-0.05310012027621269,-0.7501404285430908,-0.8194621801376343,0.5128963589668274,0.13725325465202332,0.1330694854259491,0.11533906310796738,0.30116042494773865,-0.1556457132101059,-0.45132142305374146,1.113450527191162,-0.15196432173252106],[-0.11312470585107803,-0.23478084802627563,0.43410974740982056,0.031153541058301926,0.37322622537612915,-0.008141603320837021,-0.21294020116329193,-0.03861221671104431,0.27018165588378906,-0.1965564638376236,0.01537812128663063,0.00371926580555737,-0.3202277421951294,-0.016084304079413414,-0.6339955925941467,-0.032225701957941055,1.0773802995681763,-0.09603029489517212,0.20653419196605682,-0.16834382712841034,0.2143082469701767,0.16782426834106445,0.6284108757972717,0.09037373214960098,0.02472994290292263,0.680792510509491,0.16678211092948914,0.0743744969367981,0.1259484589099884,0.07737496495246887,0.15381388366222382,0.6882972717285156,0.05998322367668152,0.6839133501052856,0.16922210156917572,0.03930512070655823,-0.8864173293113708,0.1581151783466339,-0.01664555072784424,0.13852329552173615,0.036426592618227005,0.06789566576480865,-0.15242590010166168,0.18291127681732178,1.3344857692718506,-0.18003596365451813,0.1911533772945404,0.26446080207824707,-0.29714927077293396,0.023687193170189857,0.21227584779262543,0.34229186177253723,-0.030696237459778786,-0.18984365463256836,0.1000022366642952,0.26235732436180115,0.2935318052768707,-0.1537746638059616,-0.3810817301273346,-0.19404691457748413,0.5638648271560669,0.13250024616718292,0.2306106686592102,0.24960190057754517,0.15751050412654877,0.22690564393997192,-0.7085450291633606,0.9572526216506958,-0.10516119748353958,0.07551015913486481,0.1653943508863449,-0.03942070156335831,-0.33059588074684143,0.8475725054740906,0.1602582037448883,-0.12352588772773743,-0.13281573355197906,0.06775957345962524,-0.37373587489128113,0.2109624445438385,0.08120331168174744,0.16723474860191345,0.1313748061656952,0.36243584752082825,0.35036900639533997,0.10059624910354614,-0.03546581789851189,0.24081973731517792,0.2140730321407318,-0.41636720299720764,-0.062117185443639755,-0.3730824589729309,0.22349153459072113,-0.16891151666641235,0.05623241513967514,-0.0026801321655511856,0.5532607436180115,-0.24673563241958618,-0.01667787693440914,0.00994888972491026,-0.04679476469755173,0.10312371701002121,0.2918371856212616,0.07948705554008484,-0.22568349540233612,-0.14305002987384796,0.08657670021057129,0.5981220602989197,0.26666945219039917,0.688651978969574,-0.042466938495635986,0.8926889896392822,-0.020043611526489258,0.036233432590961456,0.6045104265213013,0.044370442628860474,0.7804252505302429,-0.06549616158008575,0.06731578707695007,0.17960616946220398,-0.13909773528575897,0.12205904722213745,0.002221838105469942,0.006654966156929731,-0.09412907063961029,0.3851422369480133,0.27530980110168457,0.0012081712484359741],[0.14232394099235535,0.14791783690452576,0.02928903140127659,-0.08282122761011124,-0.12559174001216888,0.004502867814153433,0.3340913653373718,0.24221931397914886,0.37773457169532776,0.17056603729724884,-0.017699385061860085,0.14069819450378418,-0.21427056193351746,-0.01430322416126728,-0.19189853966236115,0.0835348442196846,-0.1314559280872345,0.08504427969455719,-0.1959179788827896,-0.19095024466514587,0.035111792385578156,0.10295961797237396,-0.06361562013626099,-0.016097713261842728,0.12829473614692688,-0.14217737317085266,-0.11361987888813019,-0.02872413396835327,0.1824488639831543,-0.1005997583270073,0.020236946642398834,-0.03715059906244278,0.31118616461753845,0.13664284348487854,-0.0948486328125,-0.22312988340854645,0.11501051485538483,-0.13351203501224518,0.07888436317443848,-0.4291225075721741,0.016549736261367798,-0.20097576081752777,-0.2618637681007385,0.06498265266418457,-0.29344698786735535,-0.1612851470708847,0.07512281090021133,-0.004745266865938902,0.320860356092453,0.05887434631586075,-0.0747833326458931,0.3204439878463745,-0.030832994729280472,-0.011876815930008888,0.07805866003036499,0.062090810388326645,-0.2477249652147293,-0.06197062134742737,0.02430892549455166,-0.14613568782806396,-0.4319373369216919,0.32969704270362854,0.03200353682041168,0.021324673667550087,0.143893763422966,-0.18865209817886353,0.12376044690608978,0.1553930938243866,0.0802326500415802,-0.10993321239948273,0.07864050567150116,-0.01930931583046913,0.522588849067688,-0.030016101896762848,-0.10347869247198105,0.14314988255500793,-0.11029288172721863,0.13574805855751038,0.21495421230793,0.10387519747018814,-0.1744152009487152,0.014386922121047974,-0.12500222027301788,0.41905665397644043,-0.2005055844783783,-0.17213791608810425,0.40535253286361694,-0.19697251915931702,0.23078584671020508,0.2642214298248291,-0.03320164605975151,-0.06553339213132858,-0.13341525197029114,-0.05230115354061127,0.16163071990013123,0.08497221767902374,-0.20040996372699738,0.16993094980716705,-0.07050102949142456,-0.09266196936368942,-0.14521247148513794,-0.3878185451030731,0.19949516654014587,-0.0020303057972341776,-0.04659690335392952,-0.12287084013223648,0.16134287416934967,-0.0951722264289856,-0.0703134685754776,0.2176647037267685,-0.1781095266342163,-0.048454366624355316,-0.12450680136680603,0.1791202425956726,-0.05771372839808464,0.011547163128852844,-0.016328753903508186,0.19131997227668762,0.03546362370252609,0.13279971480369568,0.03140133619308472,-0.02677130326628685,-0.042090147733688354,0.36497172713279724,0.1362362504005432,-0.160328671336174,-0.35798361897468567,-0.08497221767902374],[-0.0632866695523262,-1.0118234157562256,0.3214435577392578,-0.09151015430688858,-0.546648383140564,-0.00818806141614914,0.34706249833106995,-0.0163973867893219,-0.03760748729109764,-0.8107684254646301,-0.17780202627182007,-0.05819639191031456,0.1096467524766922,0.15218207240104675,0.1391894817352295,0.21006092429161072,-0.162513867020607,-0.00842015165835619,-0.5721890926361084,-0.6243366003036499,0.08789768815040588,-0.04688463360071182,0.0469679981470108,0.32346823811531067,-0.37995854020118713,-0.23110665380954742,-0.014890431426465511,-0.14732445776462555,0.05193657428026199,-0.08854399621486664,-0.3305560052394867,-0.21053069829940796,-0.27151545882225037,0.07611510157585144,0.09831852465867996,-0.3011930286884308,0.4935220777988434,0.017852753400802612,0.11800172924995422,-0.346410870552063,-0.37688013911247253,0.19939309358596802,-0.2523271143436432,-0.7451077103614807,0.19616134464740753,-0.17132285237312317,0.151544451713562,0.010760212317109108,-0.2229926437139511,-0.08021344244480133,-0.13621343672275543,-0.18555490672588348,-0.2017219364643097,-0.439067006111145,0.09536962956190109,0.17511391639709473,-0.04527060315012932,0.10593801736831665,-0.20692294836044312,0.21872124075889587,-0.3998902440071106,-0.2830877900123596,-0.07921193540096283,-0.6435005068778992,0.06512655317783356,0.0887158215045929,0.19175440073013306,-0.28600257635116577,-0.0405331552028656,-0.02108507789671421,0.16274088621139526,0.039843879640102386,0.05392991006374359,0.0025938500184565783,0.05288459360599518,-0.13622641563415527,0.015555320307612419,-0.14196377992630005,-0.46888992190361023,0.12063039094209671,-0.06342197954654694,0.1475224792957306,0.07939474284648895,-0.053084421902894974,-0.5216920971870422,0.02314840257167816,-0.1408158540725708,0.4642975926399231,0.17460447549819946,0.2636624872684479,0.10309311747550964,0.13855187594890594,-0.6592153906822205,0.13912257552146912,-0.01149720884859562,0.08651138842105865,0.1702115833759308,0.11528323590755463,-0.011118163354694843,-0.08944494277238846,-0.05555413290858269,0.17684730887413025,0.2513350546360016,-0.05870590731501579,-0.18680985271930695,-0.665220320224762,-0.0006212572916410863,0.3339632749557495,-0.3806897699832916,0.29317009449005127,-0.05440780892968178,0.08078823983669281,-0.040445476770401,-0.27585333585739136,0.2602981626987457,0.014888674020767212,-0.02169073186814785,-0.19604910910129547,-0.1306724101305008,-0.17552393674850464,-0.09451377391815186,-0.09939870983362198,-0.1849735975265503,-0.13049067556858063,-0.1549098938703537,-0.5336621999740601,0.33741769194602966,-0.11619497090578079],[-0.1230841800570488,0.1319282501935959,0.5229394435882568,-0.12782011926174164,-0.008460888639092445,0.31407731771469116,0.03018348105251789,0.8834413886070251,-0.1185382604598999,-0.19045694172382355,-0.06423240900039673,-0.10037878900766373,0.2430606335401535,0.025761382654309273,0.9467736482620239,-0.2068227231502533,-0.7242905497550964,-0.17250831425189972,-0.15065081417560577,0.2999228537082672,-0.39072760939598083,-0.4768954813480377,-0.7458123564720154,0.7784112095832825,-0.3488730192184448,-0.25223520398139954,0.6001357436180115,0.10936284065246582,0.009875679388642311,-0.12411525100469589,-0.30841687321662903,-0.18052132427692413,0.09337553381919861,-0.8520197868347168,-0.05109469220042229,0.4881998598575592,1.4552991390228271,0.020630553364753723,0.1148691475391388,-0.35317638516426086,-0.4294724464416504,-0.05943925306200981,0.015103929676115513,0.11992364376783371,-0.997437059879303,-0.5336058139801025,0.3281497061252594,1.1053112745285034,-0.6237781643867493,-0.1492341160774231,0.0882207378745079,0.24562838673591614,0.04731667786836624,0.4354017674922943,0.1744738221168518,-0.052676405757665634,-0.1323445439338684,0.10719826817512512,-0.33159416913986206,1.0583436489105225,-0.07712925225496292,0.14890184998512268,0.446812242269516,0.44663217663764954,0.01318033505231142,1.093275785446167,2.026304244995117,0.6762605309486389,-0.07191332429647446,0.069952093064785,0.019454345107078552,0.17236965894699097,0.6084384322166443,0.6096324324607849,0.04186113178730011,-0.041380420327186584,1.5412862300872803,0.12466222047805786,0.00048736619646660984,0.2655166685581207,0.16508787870407104,0.04127417504787445,-0.08516184240579605,0.034241970628499985,0.34088134765625,-0.024269655346870422,-0.22769832611083984,0.417044460773468,-0.3571455180644989,0.8152649402618408,-0.0647285133600235,1.503367304801941,0.15397778153419495,-0.039897143840789795,-0.16814638674259186,0.24105916917324066,-0.11264584958553314,1.127488136291504,-0.0501461923122406,0.014773810282349586,0.045618705451488495,0.04119306430220604,0.3902565836906433,-0.11209022253751755,0.48334938287734985,-0.3771464228630066,-0.23324909806251526,0.03585239499807358,-0.219300776720047,-0.08449163287878036,0.045059192925691605,-0.05003334581851959,0.0746442973613739,-0.43478837609291077,-0.21362130343914032,0.11272525787353516,0.2665797173976898,0.032952744513750076,0.6507188677787781,-0.06999987363815308,-0.012139052152633667,0.06554393470287323,0.13038551807403564,-0.26125556230545044,-0.14802901446819305,-0.7408731579780579,0.823918342590332,0.09786954522132874],[-0.08835916221141815,-0.07815515995025635,-0.4376974105834961,0.03868785873055458,0.2787109911441803,0.4163053035736084,0.32807657122612,0.37958571314811707,-0.07977520674467087,0.306317001581192,-0.13585740327835083,-0.1785193681716919,0.42322805523872375,0.48993930220603943,0.2088164985179901,0.05566200613975525,-0.09095285087823868,0.5578888654708862,0.14970499277114868,0.2730264663696289,-0.35856059193611145,-0.020001120865345,-0.35991108417510986,0.41806405782699585,0.005984690971672535,0.1017114669084549,-0.4904233515262604,0.120667964220047,-0.1560501754283905,-0.12697985768318176,0.3201765716075897,-0.5037710666656494,0.3236674964427948,-0.4328269958496094,0.148376002907753,-0.06299004703760147,-0.18192912638187408,-0.05297785997390747,-0.07588040828704834,-0.2883818447589874,0.055241622030735016,-0.19403444230556488,0.04150885343551636,-0.32674866914749146,-0.31830719113349915,-0.05571857839822769,-0.5173828601837158,0.20494164526462555,0.42039135098457336,-0.03557116165757179,0.2461232841014862,0.27723827958106995,-0.14915940165519714,-0.004812371917068958,0.06265582144260406,0.5103829503059387,-0.5232723355293274,-0.1258271336555481,-0.2823912799358368,0.001456582103855908,-0.36384689807891846,0.3621349632740021,-0.09627281129360199,-0.10718216747045517,-0.2226952463388443,-0.23377354443073273,0.25503501296043396,-0.1757444441318512,0.03643696755170822,-0.07874265313148499,0.1594892144203186,0.03240863233804703,0.42470696568489075,-0.31220531463623047,-0.033186137676239014,-0.03391960263252258,0.07650282233953476,-0.1270499974489212,-0.23101069033145905,-0.18689359724521637,-0.10268620401620865,-0.10531868785619736,0.11695355176925659,-0.30299851298332214,-0.34133052825927734,0.00918067991733551,0.1258464902639389,0.06743912398815155,-0.5139226317405701,0.15299507975578308,-0.08866263926029205,0.3542138934135437,0.003610585117712617,0.08522602915763855,-0.13004811108112335,0.4248354434967041,0.3490671217441559,0.31764718890190125,-0.05383279547095299,0.11236048489809036,0.000663688057102263,0.12847185134887695,-0.2594600319862366,-0.02294056862592697,-0.14219999313354492,0.12160814553499222,0.009956195019185543,0.1403244435787201,-0.2768581211566925,0.08796251565217972,0.010361112654209137,0.11056609451770782,0.015569686889648438,0.04034235328435898,0.21319714188575745,0.06962893903255463,-0.7388895750045776,0.4068928360939026,0.42254912853240967,0.31322211027145386,0.08101269602775574,-0.06367123872041702,-0.12655936181545258,-0.1478775143623352,0.07820776104927063,0.06378055363893509,-0.7052828073501587,-0.045650914311409],[0.012951567769050598,0.01340552419424057,-0.08794385939836502,-0.1781650334596634,0.06439640372991562,-0.12629953026771545,-0.26965388655662537,-0.6422662734985352,-0.5020974278450012,0.6020500659942627,-0.04421030357480049,0.07837137579917908,-0.1508430689573288,-0.31974855065345764,-0.18369479477405548,0.11333074420690536,0.11104924231767654,-0.40731140971183777,0.31348809599876404,-0.39116185903549194,0.27217015624046326,0.16257613897323608,0.19279271364212036,0.2790958285331726,0.48518243432044983,-0.6184503436088562,-0.5648595094680786,-0.11513000726699829,-0.24545332789421082,-0.11103712022304535,-0.16006404161453247,-0.11619549989700317,-0.7570517659187317,0.35319745540618896,-0.3431006371974945,0.10905607789754868,0.13345880806446075,0.11072239279747009,-0.10748972743749619,-0.06395699083805084,0.47334372997283936,0.24820145964622498,0.3157961070537567,-0.3102699816226959,0.20773710310459137,0.7788486480712891,0.09379201382398605,-0.025416318327188492,-0.10087314248085022,0.1019207313656807,-0.35128694772720337,-0.7084375023841858,-0.007446691393852234,0.5645239949226379,0.12302481383085251,0.11287176609039307,-0.08106113225221634,0.17152556777000427,0.4787975549697876,0.1664894074201584,0.03249233961105347,-0.26858124136924744,0.5072017312049866,0.07793997973203659,-0.4931364059448242,-0.37349042296409607,-0.40903493762016296,-0.3172661066055298,0.7209387421607971,0.021715080365538597,-0.07816305011510849,-0.12535719573497772,-0.0024159634485840797,-0.3648414611816406,0.09285086393356323,-0.12131808698177338,-0.6360575556755066,-0.1376524567604065,0.6469253301620483,-0.05812641233205795,0.03716515004634857,0.019628137350082397,0.0604105107486248,-0.06329918652772903,-0.0648825541138649,0.025473594665527344,-0.4345131814479828,0.10381164401769638,0.4849856495857239,0.08291437476873398,0.63563472032547,-0.7111583352088928,-0.29129135608673096,-0.10593918710947037,0.01900041475892067,0.22395102679729462,-0.2151462435722351,0.34853386878967285,0.014386945404112339,0.13717466592788696,-0.072202667593956,0.5144444108009338,-0.49268093705177307,0.06244353950023651,-0.3548260033130646,0.2275380939245224,-0.5185651779174805,-0.4921809732913971,-0.3606082499027252,-0.5172548890113831,0.0812128409743309,-0.35019779205322266,0.023818135261535645,0.5647074580192566,0.22529077529907227,-0.16561263799667358,-0.03220648318529129,0.24340246617794037,-0.1282612383365631,-0.010121860541403294,-0.1626167744398117,-0.11881930381059647,-0.08191598951816559,0.3895922303199768,0.11975628137588501,0.05969313159584999,-0.5015464425086975,-0.015191569924354553],[0.029656916856765747,-0.09679736942052841,-0.6985071301460266,0.11012471467256546,-0.42764073610305786,0.549630880355835,0.16279590129852295,0.44280770421028137,-0.07461126893758774,-0.009099693037569523,0.05171031132340431,-0.17655204236507416,0.9764593243598938,0.3055749535560608,0.41555795073509216,0.2692982852458954,-0.5258408784866333,0.5394590497016907,-0.3207859396934509,0.18381617963314056,-0.807603657245636,-0.11782615631818771,-0.39530083537101746,0.5080965161323547,-0.4287922978401184,0.15970800817012787,0.018994245678186417,-0.17019620537757874,0.09171106666326523,0.0036164820194244385,0.16854074597358704,-0.75688636302948,0.031108522787690163,-0.38021737337112427,0.15056544542312622,-0.20675329864025116,0.8960769772529602,-0.14459681510925293,0.02168986201286316,0.334516316652298,-0.714346706867218,-0.44210782647132874,-0.3454647362232208,0.4088656008243561,-0.7459704279899597,-0.1149001196026802,-0.2658403813838959,0.20594964921474457,0.3505682349205017,-0.017778348177671432,-0.40144041180610657,0.5547043085098267,-0.07830514758825302,-0.26179924607276917,0.03688988834619522,0.430531769990921,-0.18111345171928406,0.16208478808403015,-0.22744198143482208,-0.02755899168550968,-0.38649460673332214,-0.15538665652275085,-0.4792802333831787,-0.5060753226280212,0.010288209654390812,-0.2716389000415802,0.7842103838920593,-0.2494145929813385,-0.18449409306049347,0.004931597970426083,-0.004483466502279043,0.0020917910151183605,0.40718767046928406,-0.4327278137207031,-0.13020846247673035,-0.07561879605054855,-0.07109684497117996,-0.13142931461334229,-0.13887426257133484,-0.8231223821640015,-0.15200413763523102,0.07141329348087311,0.061255473643541336,-0.48300179839134216,-0.6215406060218811,0.15730544924736023,0.2889409065246582,-0.11667349934577942,0.46772336959838867,0.24619032442569733,0.6774857640266418,0.09147991985082626,0.2316984087228775,0.10399046540260315,-0.12147737294435501,0.722104012966156,0.12281063944101334,0.486400306224823,-0.1646318882703781,0.00815153680741787,0.10095461457967758,0.005600131116807461,-0.4049176573753357,-0.01704820618033409,0.5062281489372253,-0.28020018339157104,0.15908415615558624,0.22213242948055267,-0.044444095343351364,-0.0806642472743988,0.19982896745204926,-0.08447714149951935,-0.018510103225708008,-0.1755000501871109,0.2997961640357971,0.12402710318565369,-0.4227699637413025,0.17657628655433655,0.2694575786590576,0.9990665316581726,-0.07112027704715729,0.055247850716114044,0.016060544177889824,-0.11094631999731064,-0.05197492241859436,-0.12566687166690826,-0.01218439918011427,0.165258526802063],[-0.07558765262365341,-0.19934260845184326,-0.5437859892845154,-0.12833938002586365,0.023982064798474312,0.5529875159263611,0.1700325906276703,0.6087406277656555,-0.10435368120670319,0.12071080505847931,0.1183507889509201,0.02201707474887371,0.896771252155304,0.3762437403202057,0.12973839044570923,0.09955904632806778,-0.18439823389053345,0.6241841912269592,0.09121563285589218,-0.012631872668862343,-0.5241297483444214,0.06271015852689743,-0.6471254229545593,-0.018342526629567146,0.08364006876945496,0.08982411026954651,-0.4285210967063904,0.07946637272834778,-0.17874449491500854,0.027973443269729614,0.2132757008075714,-0.3688493072986603,0.27193117141723633,-0.4385795593261719,-0.08256831765174866,0.04478094354271889,-0.0827065259218216,0.06337232887744904,0.08168816566467285,0.12156025320291519,0.14104649424552917,-0.6456549167633057,0.052910469472408295,-0.23560771346092224,-0.2669048309326172,-0.307097464799881,-0.8870778679847717,0.17565882205963135,0.07721178978681564,-0.15870581567287445,0.38095176219940186,0.01150573045015335,-0.31731680035591125,-0.24743512272834778,-0.096488818526268,0.5489509701728821,-0.5349562764167786,-0.15326525270938873,-0.5680387020111084,-0.00791653897613287,-0.5493512749671936,0.07297761738300323,-0.08607488870620728,-0.15865562856197357,-0.5052618980407715,-0.1868426501750946,0.18394029140472412,-0.2517387270927429,-0.14206986129283905,0.01495947502553463,-0.039864592254161835,-0.17504876852035522,0.23437918722629547,-0.4254170358181,0.17571061849594116,0.04805123805999756,-0.029592206701636314,-0.08644716441631317,-0.32905587553977966,-0.19769778847694397,0.07115966081619263,-0.07574354112148285,-0.1671610176563263,-0.5345976948738098,-0.3860434591770172,0.10615208745002747,0.11055182665586472,0.5425609946250916,-0.48701485991477966,0.11317512392997742,-0.3503061532974243,0.11151964217424393,-0.2183653712272644,-0.15725943446159363,-0.17231546342372894,0.5966827273368835,0.6443675756454468,0.5490652918815613,-0.06738739460706711,-0.021889593452215195,0.018815722316503525,0.0600300095975399,-0.1767311990261078,0.07144510746002197,0.1136537417769432,-0.03926701843738556,0.0053738802671432495,0.046345364302396774,0.047779493033885956,0.26962611079216003,0.10532087087631226,0.00855290424078703,-0.08774149417877197,-0.2437363713979721,0.42714476585388184,0.1683391034603119,-0.8554252982139587,0.48740947246551514,0.5317686200141907,0.39648646116256714,-0.12245826423168182,-0.15617883205413818,0.09201784431934357,0.05960257723927498,-0.13498929142951965,-0.19390769302845,-0.833937406539917,0.07837319374084473],[0.010107755661010742,0.24394170939922333,-0.14131835103034973,-0.19332826137542725,0.4776802062988281,-0.2215190976858139,-0.4532976448535919,-0.033773139119148254,-0.33035391569137573,0.47502025961875916,0.09824641793966293,-0.06325241178274155,-0.5978859663009644,-0.1628262996673584,-0.2569422125816345,-0.4425191283226013,0.3278653025627136,0.09707792848348618,0.6389124393463135,0.15598256886005402,0.18750759959220886,-0.29814261198043823,0.060090381652116776,0.23295289278030396,0.5010991096496582,0.03222569450736046,-0.511218786239624,-0.15019041299819946,-0.21962642669677734,-0.14929541945457458,-0.3057745099067688,0.38342052698135376,-0.12255316227674484,-0.29363760352134705,-0.1744588166475296,0.23757292330265045,-0.2846810221672058,0.04800593852996826,-0.11580709367990494,-0.2523983120918274,0.5059320330619812,-0.3509211242198944,0.4168446362018585,0.007514316588640213,-0.09606161713600159,0.16741645336151123,0.027354953810572624,0.5007645487785339,0.026563463732600212,-0.07077043503522873,0.2008640468120575,-0.3970108926296234,-0.11937323212623596,0.7357272505760193,0.12585926055908203,-0.10620634257793427,-0.23467972874641418,0.01952435076236725,0.3010772168636322,0.0832255631685257,0.02284873090684414,0.1678924858570099,0.2991342842578888,0.38972702622413635,-0.4227890968322754,-0.15125489234924316,-0.27780914306640625,0.21832050383090973,0.5339733958244324,-0.11860114336013794,-0.005331546068191528,0.0685199499130249,-0.1185121163725853,-0.012525558471679688,-0.14253170788288116,0.007254555821418762,0.16298218071460724,-0.09262838959693909,0.381475567817688,0.2589170038700104,-0.14159786701202393,-0.05325029045343399,-0.08002705872058868,-0.32865238189697266,0.28088510036468506,-0.0970098152756691,-0.6679306030273438,0.2239098697900772,-0.25848451256752014,0.11846069246530533,-0.1378110945224762,0.03374771028757095,0.1489744484424591,0.14777445793151855,-0.07341435551643372,-0.05670011788606644,-0.1970330774784088,0.25768476724624634,-0.07290634512901306,0.05476057529449463,-0.1598937064409256,0.5474211573600769,-0.4450910985469818,0.12383312731981277,-0.5448774695396423,0.2589794099330902,-0.4658062160015106,-0.45718929171562195,0.16043037176132202,-0.24459634721279144,0.05201467499136925,-0.3091631531715393,0.16691115498542786,0.645709216594696,-0.3802393078804016,-0.08866874128580093,0.1294838786125183,0.21684405207633972,0.006927595008164644,-0.6183304190635681,0.0369352251291275,0.09622550755739212,-0.015360409393906593,0.37239739298820496,0.07256539165973663,0.39073169231414795,-0.3438262343406677,0.12595143914222717],[0.11880484223365784,-0.17261311411857605,-0.7451313138008118,0.12085497379302979,-0.34018823504447937,0.85905921459198,-0.07030262798070908,0.5404843688011169,0.15153661370277405,0.22983890771865845,-0.05445080250501633,-0.13866844773292542,0.79649817943573,0.7157465219497681,0.16844724118709564,0.21974961459636688,-0.47853559255599976,0.9664655327796936,-0.18323275446891785,0.14447498321533203,-0.2626538872718811,-0.08674734830856323,-0.6500679850578308,-0.18095111846923828,-0.038211457431316376,0.017570730298757553,-0.11726734787225723,-0.07135176658630371,-0.13122841715812683,-0.1403803676366806,0.35168877243995667,-0.9240810871124268,0.30875200033187866,0.037623703479766846,0.15844406187534332,-0.06888744980096817,0.0012541887117549777,-0.006895497441291809,-0.14332643151283264,-0.01322491280734539,-0.1844017654657364,-0.42592692375183105,-0.0001912982843350619,0.06328592449426651,-0.5057482123374939,0.1857791692018509,-0.6694486737251282,-0.1181037500500679,0.13116009533405304,-0.0300799198448658,0.05434970185160637,0.18443115055561066,-0.04194151610136032,-0.4430191218852997,-0.0025155972689390182,0.5129037499427795,-0.3581165671348572,-0.031081274151802063,-0.42747747898101807,0.15376731753349304,-0.32578155398368835,0.019666796550154686,-0.3449416160583496,-0.46747875213623047,0.22447845339775085,-0.3512594401836395,0.3419022858142853,-0.3235945403575897,-0.07612775266170502,0.015684841200709343,-0.11017885059118271,0.022180093452334404,0.41185882687568665,-0.33028119802474976,-0.13132734596729279,-0.15764519572257996,-0.4104236364364624,-0.07966537028551102,-0.10614669322967529,-0.28132227063179016,-0.06857290118932724,-0.12747904658317566,0.16887788474559784,-0.3274155259132385,-0.3190692961215973,-0.035133689641952515,0.10886387526988983,-0.026095952838659286,0.5745353698730469,-0.47206398844718933,0.5135884881019592,-0.0038582845591008663,0.17311859130859375,0.006569787859916687,-0.10733930766582489,0.7732546329498291,0.6721017956733704,0.4111042618751526,-0.137843057513237,0.19120877981185913,-0.07042933255434036,-0.3009568154811859,-0.5508528351783752,0.10610772669315338,0.21237868070602417,0.292494535446167,0.10320945084095001,0.24579857289791107,-0.07742252200841904,0.5400769710540771,0.16870038211345673,-0.007920004427433014,-0.17321446537971497,-0.23455767333507538,0.5005678534507751,-0.01503649353981018,-0.4715624749660492,0.49134495854377747,0.1417621225118637,0.7270809412002563,-0.10119985044002533,-0.12237680703401566,0.03774188458919525,0.24118280410766602,0.05129975080490112,-0.07592102140188217,-0.7060827612876892,-0.12396290898323059],[-0.16583693027496338,-0.5889989137649536,-0.6990930438041687,-0.0016397692961618304,0.24493855237960815,0.9447697997093201,-0.12890039384365082,0.43414202332496643,-0.3679051399230957,-0.03782086819410324,0.041015975177288055,-0.06906227022409439,1.1133532524108887,0.4831371605396271,0.13563251495361328,0.1658761203289032,-0.20913361012935638,0.9161633253097534,-0.16333328187465668,-0.04988008737564087,-0.8248884081840515,-0.24220971763134003,-0.4239177107810974,-0.2351018190383911,-0.008978627622127533,-0.06779799610376358,-0.44397929310798645,-0.024094074964523315,-0.4062964916229248,-0.10938762128353119,0.365338534116745,-0.39723455905914307,0.5260449647903442,-0.35452887415885925,-0.14717331528663635,0.12860220670700073,-0.23656967282295227,-0.15805314481258392,-0.15476317703723907,0.36878061294555664,0.05780886113643646,-0.505619466304779,0.2305237203836441,-0.347806453704834,-0.49050480127334595,-0.17533569037914276,-1.0684151649475098,0.23597072064876556,0.11101316660642624,-0.16445742547512054,0.33631619811058044,-0.19780085980892181,-0.41750282049179077,-0.047794174402952194,0.012042025104165077,0.7907822728157043,-0.9607805609703064,-0.14528125524520874,-0.8074867725372314,0.4148523509502411,-0.8895537257194519,0.35011544823646545,0.35694923996925354,-0.3069101870059967,-0.2994369864463806,-0.16779248416423798,0.3878372013568878,-0.4521210491657257,0.01829395815730095,-0.01463760994374752,-0.08004939556121826,-0.07855656743049622,0.5453131198883057,-0.5050490498542786,0.15594178438186646,-0.15537066757678986,-0.2773498594760895,-0.16388347744941711,-0.7985218167304993,-0.23078393936157227,0.08119422197341919,-0.0635603666305542,0.0648883730173111,-0.27086248993873596,-0.5489680767059326,-0.14267762005329132,-0.3010765016078949,0.5792979001998901,-0.25592145323753357,-0.19007277488708496,-0.6219982504844666,-0.022239012643694878,-0.3599902093410492,0.061054527759552,-0.1485629826784134,0.6180542707443237,0.559211790561676,0.4785001873970032,0.13681812584400177,-0.02740970440208912,-0.021176107227802277,0.025980912148952484,-0.3356117904186249,0.10033223032951355,0.3546173572540283,0.11174361407756805,0.05347469076514244,-0.29274463653564453,-0.2901100814342499,-0.029673192650079727,-0.015299665741622448,-0.42786213755607605,0.07395774126052856,-0.07724737375974655,0.9102017283439636,0.03924909234046936,-0.8141542077064514,0.5273811221122742,0.7418341636657715,0.9114431142807007,-0.06084911525249481,0.12600788474082947,0.0697568878531456,0.14021770656108856,-0.03251709043979645,-0.4448632001876831,-0.7724435925483704,0.10952892899513245],[-0.13806083798408508,0.3237941861152649,-0.03296143561601639,-0.12466076761484146,0.8467215299606323,-0.22564831376075745,-0.5705481767654419,0.39724084734916687,-0.6111241579055786,0.7314813733100891,-0.07264376431703568,0.13736100494861603,-0.5844089388847351,-0.04805917292833328,0.17842823266983032,-0.7041383385658264,0.42448878288269043,0.26114869117736816,1.2112804651260376,0.5062207579612732,-0.10382211208343506,-0.589209794998169,-0.4031912684440613,0.003445114940404892,0.4193716049194336,0.36197471618652344,-0.6969128847122192,0.015011981129646301,-0.2405712604522705,-0.09913250803947449,-0.06517839431762695,0.504429042339325,0.4077136218547821,-0.614407479763031,-0.25277259945869446,0.02634737826883793,-0.12978187203407288,-0.06459114700555801,0.1557459831237793,-0.4578292965888977,0.727336585521698,-0.33564525842666626,0.04957828298211098,0.6030803322792053,-0.38032200932502747,-0.18794220685958862,-0.3034827709197998,1.0288251638412476,0.22358180582523346,0.07457710802555084,0.4941718876361847,-0.2515755295753479,-0.3707495331764221,0.7372683882713318,0.006800253875553608,0.26646149158477783,-0.5486787557601929,-0.03641960024833679,0.3166063129901886,0.34253206849098206,-0.21190695464611053,0.6298628449440002,0.015951940789818764,0.5469774007797241,-0.5698936581611633,-0.32444989681243896,-0.3492269814014435,0.3962325155735016,0.4721248745918274,-0.15267488360404968,0.107630155980587,0.014301024377346039,0.016706576570868492,0.194597989320755,0.09234276413917542,0.04517969489097595,0.5129640102386475,-0.12161833047866821,-0.21265195310115814,-0.14636777341365814,-0.04537247121334076,-0.04298533499240875,0.03880007937550545,-0.2521207928657532,0.25267958641052246,0.1406034529209137,-0.5758448839187622,0.5507927536964417,-0.7741765975952148,0.8508484959602356,-0.875324547290802,0.3305528163909912,-0.04215400665998459,-0.040869563817977905,-0.14509664475917816,0.06146731227636337,0.09438928216695786,-0.011551270261406898,0.12093197554349899,-0.1902959942817688,-0.21164216101169586,0.33657509088516235,0.008635993115603924,0.15872840583324432,-0.1249881312251091,0.2767206132411957,-0.5532671213150024,-0.20826223492622375,0.43783366680145264,-0.4695354700088501,0.09657260775566101,-0.33497774600982666,0.061714962124824524,0.6099856495857239,-0.1542825996875763,-0.15715129673480988,0.12471066415309906,0.18620151281356812,0.2819976210594177,-0.64859539270401,0.023172318935394287,-0.1591317504644394,-0.1237536147236824,0.043147843331098557,-0.16831383109092712,0.30480584502220154,-0.5797109007835388,-0.1026976928114891],[0.17162877321243286,0.03505665808916092,-0.7877457737922668,0.0742630660533905,-0.20036213099956512,1.1837037801742554,-0.44392675161361694,1.0937026739120483,0.462585985660553,0.103997141122818,-0.16827329993247986,-0.12773847579956055,0.8918697237968445,0.8169548511505127,0.4582638740539551,0.03660779818892479,-0.46560677886009216,1.1855289936065674,-0.1471879631280899,0.2928745448589325,-0.1693403124809265,0.04315514862537384,-0.538638174533844,-0.11518301069736481,0.4427376985549927,0.20540256798267365,0.036983441561460495,0.176277756690979,-0.4523535668849945,0.04100926220417023,0.343152791261673,-0.6867889761924744,0.6413068771362305,-0.04298530891537666,0.2273835986852646,0.5087502002716064,-0.3818283975124359,0.0022916793823242188,0.05601663887500763,0.030544616281986237,0.46141815185546875,-0.26268649101257324,0.6315469741821289,-0.19772869348526,-0.4789283573627472,0.11808960139751434,-0.7671141028404236,-0.2065781205892563,0.3672226667404175,0.15049253404140472,0.6653652191162109,0.08582329750061035,-0.04913993179798126,-0.16056805849075317,4.442052886588499e-05,1.0022552013397217,-0.6104373931884766,0.15636587142944336,-0.6880864500999451,-0.051336511969566345,-0.6764531135559082,0.5741497278213501,0.03644406422972679,-0.17801979184150696,0.1002185270190239,-0.0917968899011612,0.09509417414665222,-0.12551265954971313,0.04674801602959633,0.08136779069900513,0.02618878148496151,-0.1627230942249298,0.8948375582695007,-0.15687133371829987,-0.05575338006019592,-0.04107527434825897,-0.3219902813434601,-0.028483644127845764,